,V1,V2,V3,V4,V5,V6,V7,V8,V9,V10,V11,V12,V13,V14,V15,V16,V17,V18,V19,V20,V21,V22,V23,V24,V25,V26,V27,V28,V29,V30,V31,V32,V33,V34,V35,V36,V37,V38,V39,V40,V41,V42,V43,V44,V45,V46,V47,V48,V49,V50,V51,V52,V53,V54,V55,V56,V57,V58,V59,V60,V61,V62,V63,V64,V65,V66,V67,V68,V69,V70,V71,V72,V73,V74,V75,V76,V77,V78,V79,V80,V81,V82,V83,V84,V85,V86,V87,V88,V89,V90,V91,V92,V93,V94,V95,V96,V97,V98,V99,V100,V101,V102,V103,V104,V105,V106,V107,V108,V109,V110,V111,V112,V113,V114,V115,V116,V117,V118,V119,V120,V121,V122,V123,V124,V125,V126,V127,V128,V129,V130,V131,V132,V133,V134,V135,V136,V137,V138,V139,V140,V141,V142,V143,V144,V145,V146,V147,V148,V149,V150,V151,V152,V153,V154,V155,V156,V157,V158,V159,V160,V161,V162,V163,V164,V165,V166,V167,V168,V169,V170,V171,V172,V173,V174,V175,V176,V177,V178,V179,V180,V181,V182,V183,V184,V185,V186,V187,V188,V189,V190,V191,V192,V193,V194,V195,V196,V197,V198,V199,V200,V201,V202,V203,V204,V205,V206,V207,V208,V209,V210,V211,V212,V213,V214,V215,V216,V217,V218,V219,V220,V221,V222,V223,V224,V225,V226,V227,V228,V229,V230,V231,V232,V233,V234,V235,V236,V237,V238,V239,V240,V241,V242,V243,V244,V245,V246,V247,V248,V249,V250,V251,V252,V253,V254,V255,V256,V257,V258,V259,V260,V261,V262,V263,V264,V265,V266,V267,V268,V269,V270,V271,V272,V273,V274,V275,V276,V277,V278,V279,V280,V281,V282,V283,V284,V285,V286,V287,V288,V289,V290,V291,V292,V293,V294,V295,V296,V297,V298,V299,V300,V301,V302,V303,V304,V305,V306,V307,V308,V309,V310,V311,V312,V313,V314,V315,V316,V317,V318,V319,V320,V321,V322,V323,V324,V325,V326,V327,V328,V329,V330,V331,V332,V333,V334,V335,V336,V337,V338,V339,V340,V341,V342,V343,V344,V345,V346,V347,V348,V349,V350,V351,V352,V353,V354,V355,V356,V357,V358,V359,V360,V361,V362,V363,V364,V365,V366,V367,V368,V369,V370,V371,V372,V373,V374,V375,V376,V377,V378,V379,V380,V381,V382,V383,V384,V385,V386,V387,V388,V389,V390,V391,V392,V393,V394,V395,V396,V397,V398,V399,V400,V401,V402,V403,V404,V405,V406,V407,V408,V409,V410,V411,V412,V413,V414,V415,V416,V417,V418,V419,V420,V421,V422,V423,V424,V425,V426,V427,V428,V429,V430,V431,V432,V433,V434,V435,V436,V437,V438,V439,V440,V441,V442,V443,V444,V445,V446,V447,V448,V449,V450,V451,V452,V453,V454,V455,V456,V457,V458,V459,V460,V461,V462,V463,V464,V465,V466,V467,V468,V469,V470,V471,V472,V473,V474,V475,V476,V477,V478,V479,V480,V481,V482,V483,V484,V485,V486,V487,V488,V489,V490,V491,V492,V493,V494,V495,V496,V497,V498,V499,V500,V501,V502,V503,V504,V505,V506,V507,V508,V509,V510,V511,V512,V513,V514,V515,V516,V517,V518,V519,V520,V521,V522,V523,V524,V525,V526,V527,V528,V529,V530,V531,V532,V533,V534,V535,V536,V537,V538,V539,V540,V541,V542,V543,V544,V545,V546,V547,V548,V549,V550,V551,V552,V553,V554,V555,V556,V557,V558,V559,V560,V561,V562,V563,V564,V565,V566,V567,V568,V569,V570,V571,V572,V573,V574,V575,V576,V577,V578,V579,V580,V581,V582,V583,V584,V585,V586,V587,V588,V589,V590,V591,V592,V593,V594,V595,V596,V597,V598,V599,V600,V601,V602,V603,V604,V605,V606,V607,V608,V609,V610,V611,V612,V613,V614,V615,V616,V617,V618,V619,V620,V621,V622,V623,V624,V625,V626,V627,V628,V629,V630,V631,V632,V633,V634,V635,V636,V637,V638,V639,V640,V641,V642,V643,V644,V645,V646,V647,V648,V649,V650,V651,V652,V653,V654,V655,V656,V657,V658,V659,V660,V661,V662,V663,V664,V665,V666,V667,V668,V669,V670,V671,V672,V673,V674,V675,V676,V677,V678,V679,V680,V681,V682,V683,V684,V685,V686,V687,V688,V689,V690,V691,V692,V693,V694,V695,V696,V697,V698,V699,V700,V701,V702,V703,V704,V705,V706,V707,V708,V709,V710,V711,V712,V713,V714,V715,V716,V717,V718,V719,V720,V721,V722,V723,V724,V725,V726,V727,V728,V729,V730,V731,V732,V733,V734,V735,V736,V737,V738,V739,V740,V741,V742,V743,V744,V745,V746,V747,V748,V749,V750,V751,V752,V753,V754,V755,V756,V757,V758,V759,V760,V761,V762,V763,V764,V765,V766,V767,V768
C0006271_P,0.32993543,0.9031338,-0.6513989,-0.03903172,-0.4228879,-0.8656714,0.19032885,0.41512215,0.8560385,-0.7461088,-0.57265794,0.6854115,-2.3716261,0.5671887,-0.699201,-0.7988378,0.22226568,-0.021728018,0.1850115,-0.4672821,-1.4504993,-0.40983486,-0.42999595,-0.076928414,-0.16536194,-0.2900297,1.4548025,-0.2632537,-0.13078193,-0.4561234,-0.90188146,0.47660756,-0.4420316,0.27050707,-0.6362811,0.6265931,0.140389,0.62221754,0.15601267,0.45531875,-0.44294438,0.9574368,0.8182142,0.3272926,0.55739844,-1.6029801,-0.07551879,0.6851659,-0.90473974,-0.50113803,0.8210652,1.2514439,0.7012783,-0.1548883,0.14177132,-0.5123054,-1.1302474,-0.29364282,0.010905394,1.280652,0.457079,-0.99388915,0.7271224,0.6260233,-0.2427218,-0.02216967,0.15159708,0.43926573,0.5129249,-1.2403167,-0.022219792,-1.2790334,0.6293071,0.48632243,0.23734139,-0.010382257,1.3072783,0.29071966,0.32759047,0.13211332,0.06466394,-0.024854783,-0.41535437,1.7243522,-0.13762854,0.25710273,-0.13670768,0.18989688,-0.26964992,1.0040472,0.98411894,-1.0949324,-1.0443985,0.25023508,0.51767117,0.17745875,1.0389724,0.080362946,0.63395655,-1.2839177,-0.5916438,0.63998425,1.2713902,-0.6125843,1.5481945,-0.57435656,0.31397235,0.3922507,0.4768935,1.4692615,0.9064591,-0.57973313,-0.43390712,-0.44932216,-0.69185376,0.015036222,0.36284435,-0.39186957,0.22878367,-1.1810021,-0.287471,-0.45242497,0.45855135,0.40964058,-1.02648,-1.008974,-1.257094,-1.0711792,0.122725,0.49735457,-2.1342452,0.23451504,-0.517449,0.20932223,0.87989897,0.86220384,-0.37999713,-0.64666516,-1.1741136,-0.3444654,0.058949284,-0.1325901,-0.4884128,-0.70215154,-0.2639531,0.69109905,-0.39175153,0.6652994,-0.9299287,-1.718393,-0.22229062,-0.097373396,-0.37692356,-0.39788732,-0.64004415,-0.29336038,-0.21820323,0.4903618,0.44763267,-0.6774002,0.563601,0.7086238,-0.24856323,-0.2699491,-0.023238719,-0.16354102,0.8481942,0.35611668,0.31727937,-0.012600705,0.50126094,0.33685702,-0.45137823,1.1888233,0.6834983,0.91703176,0.63966304,-0.20769331,0.6312885,-0.4889864,0.6734322,0.08467116,0.56332195,-0.6000821,-1.3788503,0.5359425,-0.4994686,0.57954484,0.675042,-0.93984175,0.28646553,-0.20423079,-0.29717448,0.14720029,-0.56515706,0.1773732,-0.7868601,0.11235207,-0.4052835,-0.95703405,0.3919474,0.2770921,-0.9247906,1.4517136,-0.012691069,-0.3556036,-0.10376796,0.57609284,0.1817927,-0.7005783,-0.72136027,1.1312231,0.3825905,0.33660612,0.17931753,0.5548338,0.6781318,0.17359123,-0.040607795,0.060795292,0.31272975,-0.11604332,-0.3939828,-0.5508469,-0.35496637,0.55919987,-0.33507332,0.9170766,-1.6253413,-0.24893545,0.3815706,0.26705202,0.5427264,-0.27780956,-1.1036198,0.17211948,-0.20594959,-0.39825433,0.0549583,0.83577156,-0.45561484,-0.17894162,0.42116058,-0.31840014,0.6651102,0.22788744,-0.8388838,0.51109695,0.12886243,-0.5823826,1.1787422,0.59475195,0.28103608,0.025612086,-0.18648925,-0.3458428,-0.6488527,-0.79410046,-0.6094055,0.108081914,1.0156726,-0.8579815,0.033410706,0.42384803,-0.03658543,0.3964354,0.2367264,0.66467464,-0.6144911,-0.20933071,-0.6205555,-0.7999325,-0.5409265,0.36106014,0.63239634,-0.5386055,0.12362978,0.54051125,0.17153874,-0.9293326,-0.7635128,0.8313363,-0.0879177,0.4547059,-0.39928225,0.93397546,1.1038756,-0.22373949,-0.045249492,0.84448904,0.2474665,0.5206234,0.21654475,0.3775238,0.5022531,-0.10604558,-0.87318516,-0.35216904,-0.19571805,-0.2881149,-0.25264752,-0.26041377,-0.490299,-0.50092095,0.15086788,0.24466956,0.32316768,0.60554934,1.1125456,0.4363113,1.3069667,-0.66072124,-0.65671754,0.9006939,-1.2629563,-0.29480428,0.22086963,-0.0882336,0.64596945,-0.44987366,-0.45011598,0.5145179,-0.2678733,-0.2419045,0.4094134,0.057657015,0.32519343,-0.96606874,0.4001746,-0.38506618,-0.062212396,-0.66865844,-0.586876,-0.746298,1.2939095,-0.15263799,-0.94359404,-1.1506022,0.09648282,0.9992373,0.76028603,-0.27362245,-1.1834385,0.017830089,0.66328365,-0.45992434,0.9059956,-1.9418689,0.59356135,0.20558502,0.8670195,0.037165854,0.7796029,0.64521575,0.6830628,-0.70156896,-0.29185447,-0.6406732,0.44431645,-0.090699494,-0.5208177,-1.3712217,1.3134009,-0.102142766,0.14447467,0.74229646,-0.18143517,0.4633889,-0.13122049,0.04682929,0.7464221,-0.18859264,1.3756547,1.1161133,-0.5292554,-0.45530286,-0.92207956,-0.16325268,-0.5751602,-0.980073,-0.011238992,0.24323694,-0.504548,-0.29039788,0.04391764,-0.3744684,0.24269882,-0.5204233,-0.33568528,0.60103214,0.5883611,-0.70543563,-0.16052605,-0.40146255,0.47075483,0.14946859,-0.6151248,0.52579355,0.9551895,-0.41206396,-0.36559278,0.16941069,0.32179633,0.7047626,-0.32624507,-0.267611,-0.8574948,0.9279235,-0.19812639,-0.45493168,-0.29196864,0.41897637,-0.87208354,0.292149,-0.6675376,-0.19007051,0.3046025,1.3040451,0.29589662,0.6955028,0.24101599,-0.67184424,0.056132726,-0.9310722,0.55939054,-0.15379025,-0.2568822,0.12419951,0.22731417,1.1437982,-0.5677255,0.097017735,-0.20294566,0.99894166,-0.5354764,-1.0881244,0.8225051,-1.0712314,0.07367359,0.73759204,0.077528566,0.008019224,0.3525836,-0.50019526,-0.42352733,0.19255523,0.441527,0.6935866,0.8094281,0.76427835,-0.53152204,-0.03560426,0.5873543,-0.57494944,0.18418738,-0.36483645,0.7787359,-0.2744157,0.2011973,-0.19231798,-0.34564742,-0.16099754,-0.34348804,1.4896673,-0.56803876,-1.4608142,0.68246645,0.7077536,0.18964937,-1.0434878,0.21807313,-0.5793867,0.90527344,-0.35362652,-0.16185969,-0.507691,0.93277645,-0.31200084,-0.04212306,0.71039665,0.3622024,0.4355573,0.3235125,1.7810183,0.19884017,0.75098586,0.07396604,-0.36275002,0.7876607,-0.81822366,0.19256109,0.2695987,-1.2258563,0.67983586,-0.63565755,-0.18505691,-0.6431558,-0.80547625,-0.565633,-0.35234386,0.15248708,0.33138373,-0.08584921,-0.8059479,-0.32731068,0.76028615,0.19541815,0.12264596,-0.8048726,-0.85081017,0.48861447,-1.3957967,0.55428463,0.79210943,-0.60379344,-0.5185648,-0.66329414,0.5751958,0.49036914,-0.49609378,0.4110169,-0.59347963,-1.4687865,0.962712,0.17134519,-0.23358163,-1.0856124,0.24865815,-0.6782857,-0.7136579,0.23405778,0.28267425,-0.6068053,-0.584287,0.063476294,-0.64492255,0.41236806,-0.5822042,0.29054108,0.29546908,-0.028991302,0.014063988,0.47750163,-0.48355702,-0.98602426,-1.2402656,-0.3438854,0.17740145,0.07708842,-0.02176454,1.0720454,1.9723474,-0.020343065,0.043620467,0.40684992,1.389563,-0.9286052,-5.0125,-0.07905344,0.17095979,0.58313775,0.72289395,0.29780352,0.035709105,0.21523735,-0.52491826,0.84675735,-0.8387191,-0.6353369,0.5628129,1.1402557,-0.6010137,0.4681921,-0.115521796,0.41275463,0.68607324,0.49306947,-0.2636472,0.5352777,0.8749124,1.533635,0.22142035,-0.32068178,-0.56252134,0.09326066,0.92028123,-1.30333,0.18540382,-0.28222433,0.7378992,-0.75356424,-0.34878105,-1.1451808,-0.3588777,-0.9548512,0.64826673,-0.885133,0.72782147,0.39623445,-0.32044238,1.084403,0.11909573,-0.86670387,-0.67468584,-2.6841848,0.15852603,0.17314471,0.38362685,1.1385106,0.057313308,0.5030561,-0.30448675,0.040706012,-0.8091829,-0.45613325,0.2811556,-0.678394,-1.0125419,0.9020471,0.35379392,-0.3447656,-1.1006116,0.6643473,0.20162289,-0.36090043,-0.5273407,-0.61297303,-0.7851164,0.20650981,0.060664214,-0.03950494,0.01791048,0.31445494,-0.5143965,0.04554703,-0.4942425,0.5987572,1.0062858,-0.2050874,0.13663653,-0.27777335,0.28642282,-0.17584613,-0.26896077,0.5734041,0.022092707,0.35974002,0.22248805,-0.59519464,-0.17558494,-0.56177825,-0.6014508,-0.35176817,0.12170981,-0.25610644,-0.16328304,-0.17286196,0.30449644,-0.65853786,-0.49061364,-0.01681894,-1.194371,0.06331348,1.1002562,-0.2535534,-0.12117107,-0.16010407,0.24628328,0.49993512,-0.05043123,0.8331526,1.5783184,-0.67001176,0.8599843,0.3705489,-1.4208013,0.34944853,0.011149146,-0.63667387,-0.6859862,0.73914737,0.7293938,-0.33884344,0.5554098,-0.6085441,1.4395341,0.6942809,-0.18951416,-0.40904748,-1.2954643,0.2563982,0.21277645,-0.18889622,0.48113096,-0.07599731,-0.39046428,0.57171565,-0.4253109,0.89642155,-0.21064211,-0.0903391,0.12388323,-0.38849273,-0.6414331,-0.11939955,-0.3901419,0.136669,-1.139904,0.33439785,0.6120927,-0.91554844,0.19948927,0.20248133,0.934342,-0.41353315,-0.69133854,0.7924432,0.33281106,0.82149196,-0.32529038,-0.5038711,0.22656435,0.5899319,0.55033076,0.39786217,0.41849828,0.36946875,-0.5653851,0.14774951,-0.46423206,-0.90122896,-0.5820736,-0.29454485,0.4580825,0.23228234,-0.58211225,-0.19254674,0.81582564,0.0583373,-0.4489695,-0.92192346,0.36085567,0.7337702,1.4930806,-0.27555567,-0.7723972,0.75279623,-0.7249818,-0.20197213,-0.959789,0.011678789,0.41086876,-0.6415966,-0.23365904,0.84472275,0.24500245,0.24596137,-0.86962444,0.28094,-1.0587177,-0.8909389,0.45332626,0.8886125,0.05349821,1.3463292,0.41527423,-0.1388554,-0.7289514
C0006271_A,0.49663246,0.4684802,0.53727657,0.50425744,-0.88356316,-0.7991471,-0.0020216443,0.38119435,1.0262859,0.1320602,0.34876576,-0.30996093,-0.8924116,1.9459435,-1.2736611,-0.8894987,-0.06536189,-0.22163421,-0.33022046,-0.16187826,-1.6896228,0.1926429,-0.33543935,-0.48236278,-0.017049156,-0.2853272,0.9537431,0.27837408,-0.4494896,0.3415292,-0.3717408,-0.2119218,-0.032616664,-0.21313626,-0.37090147,-0.10208118,0.381541,1.3153841,0.47692072,-0.30929723,0.026023977,0.29431456,0.7102009,-0.6024286,0.7220908,-1.132331,-0.28384992,1.1322465,-1.6116151,-0.014847368,-0.22543514,1.5309769,0.2530482,-0.03240639,-0.25149724,0.0113399625,-0.0036377711,-0.99313104,-0.090556435,0.8698905,0.20162094,-1.2364049,0.9514917,0.6785656,-1.0397993,0.7499737,0.34393212,0.0869806,0.33961445,-0.65060365,-0.08850351,-1.3094708,0.13574597,-0.16752519,-0.7538621,0.25443637,1.4176344,-0.2789815,0.83134687,1.2905245,-0.7291455,-0.3331883,-0.27951202,0.9093942,-0.32822543,-0.17275788,0.4230697,0.8011375,-0.3871102,-0.40824944,0.9539259,-0.9272078,-0.53603476,0.32939303,-0.13614084,1.0213375,0.7028142,-0.10103366,0.36069566,-0.6658674,-0.3152339,-0.19978522,0.30344158,-0.65233445,0.14853247,-0.25554675,-0.3491878,-0.5248049,0.83435076,0.48615888,1.0408647,-0.20120868,-0.3467279,0.6132609,-0.13474004,0.038235348,0.7183608,0.31247565,0.21411039,-0.6990786,-0.3938991,-0.53141505,0.13241984,0.7596127,0.7032281,-1.1197816,-0.1315173,-1.5492961,-0.0098254895,0.24976042,-2.1802487,0.8794374,-0.65486526,-0.6927501,0.6246024,0.09085833,0.43565816,-0.6477849,-2.2448473,-1.0319958,0.31474477,-0.057611655,-0.3031575,-0.23868185,-0.18093696,-0.3324435,-0.13683732,0.56245273,-0.19328885,-0.28936613,0.11965808,-0.9089426,0.47414905,1.3215101,0.21834567,-0.5799638,-0.1900899,-0.60816425,-0.16105877,-0.77505094,0.1459767,1.33254,0.122987546,0.052755166,0.114966184,-0.043526214,0.35827458,0.71217066,-0.21497415,-0.3731293,0.22132817,0.2709068,-0.9133714,1.3356999,-0.04995445,0.26164934,-0.21144058,0.041224092,0.20947945,-0.3623639,-0.053598184,-0.35809758,0.9141765,-0.6372146,-0.83110017,0.18301116,-0.47303125,0.03469672,0.55311096,-0.17355165,0.18243656,-0.71458304,-0.29468873,-0.41189033,-0.052567318,-0.2500609,0.226746,0.92505205,-0.6758629,-0.53265405,0.28160182,-0.16625224,-0.43881404,0.3897606,-0.53692174,0.24800779,0.68576926,0.053320833,0.28801793,0.058543496,-0.44624007,0.6808804,-0.17546567,-0.18898031,0.12392163,-0.11452585,0.66237307,0.3471288,-0.88300186,0.3388642,0.5366268,-0.8806227,-0.5812716,0.365556,-0.6608528,0.24378084,-1.2003915,0.6915251,-1.1291381,-0.9089301,-0.53407186,0.28186247,0.1784685,-0.14455219,-0.046882283,-0.04455139,-1.1405228,-0.528412,-0.61160296,0.91086155,-0.33850357,0.06904549,0.10780889,0.14980246,0.44116765,-0.7025369,-0.56428915,0.37000924,-1.0245495,0.11154401,1.306915,0.77987975,0.116084784,0.020210981,1.2117887,-0.19343063,0.12739053,-0.06979602,-0.6790608,0.109929286,0.22299595,0.08387924,0.0056753494,1.4475515,-0.6561356,0.42185768,0.82307446,0.24873087,-1.0993062,0.69710726,-0.27022955,-0.5240073,-0.11348875,-0.16285324,0.29596996,-0.858198,-0.1319629,-0.30400348,-1.3554814,-0.5337066,-0.098231345,-0.52676815,0.733489,-0.2191011,0.3008227,0.3515443,0.38896358,-0.42703885,-0.18274216,0.6176354,1.0329566,1.059464,0.19015759,-0.49335423,0.15844387,0.045653883,-0.44741532,0.012346178,-0.14648603,-0.29475582,0.22652356,0.4426379,0.24744077,-0.9311569,0.32018766,-0.35945717,-1.0285242,0.7890236,0.51196355,1.0749766,1.2572932,-0.7419084,0.20724766,1.0437696,-1.261356,-1.007067,0.08098771,-0.6703318,1.2742426,-0.10049452,-0.37183714,-0.16185805,0.171173,0.17231226,-0.39799708,-0.36085737,-0.12470159,-0.59542394,0.52355385,0.20132063,0.22557756,0.838057,-1.0251746,0.286536,-0.11401361,-0.10553427,-0.9033784,-1.0363815,1.0948566,0.648414,0.2543106,0.32210732,-1.573446,0.5261543,0.8584435,-0.5933623,-0.14349554,-0.52500594,0.7431469,0.27126634,0.29726562,0.58914554,-0.09961524,1.2173048,0.2160332,-1.2853726,-0.16553524,-0.5860523,-0.18686378,0.22583728,0.050459042,-0.49533772,0.3630899,0.35028362,-0.20242116,0.02670417,-0.43705222,0.35168803,0.354417,-0.24119444,0.21767737,-1.0481215,0.39643306,0.5692155,-0.8591044,-0.34729493,-0.81534445,-0.23090798,-0.059625182,-0.8522383,-0.15779045,0.5277055,0.33720925,-0.23743902,-0.4050249,-0.25449356,0.77076876,-0.40944493,-0.0060729543,0.18102548,0.82671195,0.34696925,-0.6434413,0.21932247,0.27842584,0.11721067,-0.2559954,-0.17080468,0.34637326,-0.13765933,-0.7938657,1.2552538,-0.18999374,1.339826,0.19750181,1.0683947,-0.560967,-0.56789047,0.46661294,-1.0723225,0.59350145,0.57071334,0.38968587,-0.27219626,0.053329483,-0.81312484,-0.0845786,0.2859498,0.04488514,0.095729105,-0.14758402,0.12159884,0.8192798,-0.7312823,0.23693484,0.13262087,-0.051650174,-0.040354725,0.3358734,-0.1298387,0.1888178,0.570911,-0.82171154,1.4815607,0.3041964,-0.5616407,0.54410523,-1.1974832,0.36475697,0.7287633,0.4169027,-0.38242093,0.016212422,-0.4123563,-0.7825178,0.36845958,0.3465161,0.14308333,0.5325066,-0.4349107,-0.3641039,0.7655252,0.32770282,-0.23528883,0.58625376,-1.2475153,0.5397351,-0.58692724,1.0551594,0.045354255,-0.76478934,-0.7591724,-0.56511945,1.0399073,-0.5680645,-1.0160245,0.69852346,1.0360154,0.44874448,-0.342666,0.7429815,0.36042538,1.0255268,-0.9036431,0.10365307,-1.2989272,0.23851402,0.16272786,0.10929451,0.80288166,-0.39944497,0.19368677,0.40398946,1.3050758,-0.113331065,0.79101974,-0.39082992,-0.046406936,0.8366662,-0.72561496,-0.12908459,-0.34225866,-0.52043176,-0.55654776,0.22191465,0.23839907,-0.35816988,-0.4777481,-0.3372134,0.27005732,-0.2948216,0.3565096,0.41285077,-0.31392342,-0.6235486,-0.33354694,0.11501531,0.9304476,-0.02061693,-0.52749234,-0.4723984,0.18405907,0.28461802,0.9663546,0.10465226,-0.64979607,-0.92904955,0.2412932,0.4472484,-0.21763328,0.7139134,0.4296777,0.019068189,0.9110633,0.30400774,0.17562492,-0.6141021,-0.5684927,0.36022356,-0.7499944,0.96773815,-0.15205355,-0.0721517,-0.8709695,-0.5667449,-0.79577595,-0.8405715,-1.231982,-0.25907916,0.30589467,0.2806477,-1.1538193,0.2250563,-0.22281684,-0.4895798,-0.031492174,-0.36107895,-0.40850526,0.1862098,0.026602868,0.61966383,1.7479768,0.055206046,0.07897595,0.37425303,0.6356567,-0.4653824,-5.6304245,-0.17934988,0.2887381,1.1642369,0.015357679,-0.7630966,0.47034213,-0.005893618,-0.049002133,0.98898995,-0.2585925,-0.028240437,1.0868031,0.6062015,-0.19345826,0.6216231,-0.3324936,0.639104,0.49335244,0.29990032,-0.15905128,0.7422291,0.58772933,0.72121286,0.2395016,-0.7782162,-0.90886164,0.5212198,0.4406284,-1.3388911,0.6213221,0.110159025,-0.19179535,0.557377,-0.34425762,0.19312297,0.10020563,-0.78646785,0.4175249,-1.0000156,0.16159797,-0.62796175,0.24640706,0.46479812,0.17591621,-0.93005306,0.21763262,-2.1132143,0.5905679,0.8844596,0.6874869,-0.32011768,0.8536922,0.5581637,0.15694992,0.24836469,-0.9961958,-0.26106757,0.2829068,0.8263757,-0.58799475,0.15382631,0.55493236,0.76636714,-0.5261699,0.7536478,0.9688554,-0.557267,-1.3994888,-1.0703772,-0.7120641,0.5584904,-0.3928753,-0.4951449,0.43540782,1.0660189,0.3649477,0.5796877,-1.0629091,0.16358283,0.9422755,-0.18517469,-0.61583143,-0.92129004,-0.80192924,0.004606258,0.308759,0.46457785,-0.055725597,-0.59591764,-1.3465797,-0.44055218,0.5154367,-0.41258845,0.3189094,-1.1234032,-0.7401739,0.9154623,-0.20397098,-0.07186668,0.3962749,-0.73865867,0.012973722,-0.5921646,-1.6437788,-0.8101383,-0.30173272,0.3341098,0.50435746,0.013018999,-1.0174732,-0.1816598,-0.29420194,0.10920426,0.097398505,-0.2694304,0.7235124,-0.061422862,-0.8260926,-0.40590847,0.1853506,-0.48568857,-0.8210414,1.5989851,0.6935358,-0.5465192,1.0822315,-0.77750635,0.8902037,0.3863865,0.46628082,0.4435047,-0.65953165,0.062785536,1.1433494,0.17416786,0.5346178,0.36138675,-0.39922103,0.77304703,-0.6428409,1.1198809,-1.118451,-0.05100534,0.048941605,-0.3186218,-0.57797194,-1.260913,-0.6862152,0.08994558,-0.68766284,0.7979008,0.5583955,-0.7684757,-0.037118603,-0.115509346,1.6313882,-0.1371264,-0.6921245,0.35224506,0.057977363,0.6308362,-0.5681631,-0.5136366,0.59956133,0.5093426,0.6568668,0.5067249,0.34366184,-0.4680211,0.431832,0.8449023,0.075112656,-0.26211986,-0.26009536,0.15226318,0.75636685,-0.5621738,-0.47033194,-0.7118512,0.40111387,0.35515332,-0.06666733,-1.4456385,-0.060900718,0.5303253,1.5640335,-0.5283835,-1.0202122,0.06472008,-0.6682508,-0.6135242,-0.83614516,0.9467634,1.1137521,-0.105343565,0.26587734,-0.27949193,0.9248063,0.556245,-0.70158094,1.0265363,-0.69069755,0.4735956,-0.14829738,-0.020699471,0.3644717,0.78025347,0.33174524,0.059562027,-1.0108998
C0231528_P,0.539713,0.7716239,-0.31272176,0.08191225,-0.17096888,-1.1657943,0.30142763,0.34681073,0.3726617,-0.6356622,-0.6838231,0.5295854,-2.1369138,0.45887232,-0.8424951,-0.19749813,-0.06284852,0.2705128,-0.022848865,-0.34952915,-1.1201223,-0.27452415,-0.4595137,0.053880613,0.18444635,-0.4933284,1.9797517,-0.0711086,-0.120548174,-0.36090893,-0.9371687,0.5666407,-0.47017598,0.112197764,-0.95697796,0.6792039,0.5227777,0.57203823,0.59731007,0.41129276,-0.5554122,1.1881456,1.2438562,-0.21180359,0.6217976,-1.3754046,-0.25945854,0.55772936,-0.8465242,-0.4262186,0.26824144,1.1851485,0.45731303,-0.45853218,-0.053665034,-0.8267154,-0.7603363,-0.61956614,0.07405845,1.4798841,0.19877043,-0.53223413,1.019922,0.84430957,-0.5435435,-0.07269776,0.20551912,0.46748507,0.45976,-1.1817493,-0.5099705,-1.3122001,0.5132274,0.26097333,0.08979069,0.3385977,1.4821758,0.31707639,0.35047427,0.08829467,-0.021735905,-0.42118466,-0.52291346,1.4936856,-0.23839873,0.02796322,-0.009404641,0.24959302,-0.65984225,1.1669565,1.0369326,-0.77454954,-0.36346817,0.21014872,0.30282038,0.55782497,1.111716,-0.32405335,0.97527605,-1.4375043,-0.5932646,0.53174937,1.0342889,-0.6578688,1.3297648,-0.7021557,0.4429953,-0.0113138035,0.34383312,1.4764073,0.7461564,-0.35268515,-0.67186993,-0.3505116,-0.42538688,0.24524641,0.2064099,0.017010182,0.3106514,-0.6950958,-0.47345546,-0.43673313,0.31528574,-0.023634184,-0.739001,-0.87226266,-1.2654382,-1.0311968,0.22574319,0.5715878,-2.388139,0.23710363,-0.22543845,-0.17397742,0.9648355,0.80780655,-0.40384537,-0.5619042,-0.96542984,-0.62909436,-0.22620639,-0.23243919,-0.47509626,-0.57541203,-0.18089262,0.5744847,0.09688537,0.52586865,-0.785936,-1.7268245,-0.30504972,-0.3287601,-0.014533399,-0.11914361,-0.5324203,-0.68728304,-0.094295785,0.3307366,0.034823474,-0.2840178,0.59136975,0.7559232,-0.0070606545,0.061545826,-0.32238773,-0.38602453,0.88971597,0.035401773,0.17545031,0.102986455,0.6394737,0.379924,-0.7206891,1.1068923,1.111188,0.9648556,0.27345845,-0.19649008,0.4653713,-0.34330624,0.6760195,-0.22730324,0.6226404,-0.6909515,-1.3986045,0.44197991,-0.69391155,0.5980906,0.07284767,-0.6675287,0.044201776,-0.3848861,-0.05346051,0.042663034,-0.54624504,0.2679657,-0.6735486,0.24084435,-0.5853454,-0.8824805,0.53232175,0.105189145,-1.1875075,1.5012027,0.13308157,-0.21958655,-0.07993302,0.30386347,0.058918417,-0.3520418,-1.0145859,1.0614022,0.42252076,0.41419038,0.22811389,0.53954625,0.86667264,0.10168741,-0.20588848,-0.03274986,0.39023226,-0.2387839,-0.58697414,-0.08138238,-0.6152527,0.5557538,-0.32565695,0.83897495,-1.4431862,-0.42211828,0.33431038,0.0492094,0.3510909,-0.26451552,-0.58508956,0.15113078,-0.37864995,-0.23731348,0.20347463,0.9398006,-0.45229328,-0.21049286,0.46010655,-0.30249456,0.37270987,0.28977782,-0.772945,0.71167576,-0.26176208,-0.501658,1.5006194,0.3925084,-0.067289434,-0.014721461,-0.14132097,-0.050189264,-0.5753636,-0.809099,-0.5229249,0.04579349,0.8894316,-0.725573,-0.12176979,1.083195,-0.09302409,0.34792894,0.18448019,0.72895527,-1.089874,-0.27405638,-0.5753914,-0.9808214,-0.4424244,-0.025834918,0.5659925,-0.58476704,0.027488608,0.5346147,0.01327743,-1.1193532,-0.5424348,0.49071658,-0.053762987,0.33677977,0.018138286,1.2300966,1.2639658,-0.26663488,-0.10923028,1.484524,0.18251908,0.6478013,0.3725006,0.2680503,0.54116315,-0.13474977,-0.9604373,-0.13900618,-0.11706653,-0.47210082,-0.25714943,0.1655606,-0.33887485,-0.26597878,0.30097607,0.1408889,0.115569815,0.31523323,1.1309471,0.28681412,0.766187,-0.8183788,-0.35489452,1.0744783,-1.248998,-0.27554393,-0.05691251,0.005044888,1.0544045,-0.15538019,-0.41100496,0.14679275,-0.08376066,-0.028926857,0.034565695,-0.1281934,0.17992209,-0.6489699,0.24522202,-0.18753631,-0.049932558,-0.64829373,-0.83247626,-0.25974527,0.7860437,-0.103349015,-0.50070465,-0.70672065,0.41096723,0.891997,0.5197544,-0.30158764,-1.1206123,0.46320423,0.44792864,-0.9374035,0.35047022,-1.8450143,0.6733012,0.057140686,0.87273407,0.014117911,0.9281242,0.70455486,0.50152194,-0.7668865,-0.22392023,-0.5460669,0.73725724,-0.33153075,-0.50445306,-1.3134267,1.2528697,-0.23268181,-0.02748815,0.8871569,-0.29890692,0.3213311,0.20457903,-0.25412196,0.359834,-0.3896686,1.2121243,0.9485731,-0.49765268,-0.19039613,-0.5975595,0.1829821,-0.72310126,-0.77913064,-0.47222537,0.74865294,0.035506684,-0.24827382,0.060465343,-0.13429418,0.7320698,-0.7743615,-0.066502176,0.4858995,0.3969941,-0.5763767,-0.05734237,-0.2959794,0.3225747,-0.23499107,-0.4377252,0.15948409,0.36956102,-0.3852987,-0.59414935,0.6688123,0.035419263,1.3213042,-0.19839561,-0.17727686,-0.59047794,0.93505883,-0.16005595,-0.6765434,0.04601428,0.22810414,-0.35233998,0.083164595,-0.43710637,-0.3323354,0.49189234,1.212578,-0.12634465,0.44580945,0.14957815,-0.4810602,0.35843787,-0.9107866,0.28022194,-0.25793728,-0.33740312,0.33208394,0.1318014,0.7239892,-0.19928876,0.16632196,-0.11062922,0.969756,-0.48374555,-1.0754752,0.6031458,-0.97891855,-0.01767687,0.6180142,0.07553192,-0.27448982,0.42040023,-0.4644052,-0.8142842,0.24292032,0.24390492,0.73564273,1.2010171,0.8594309,-0.53162926,-0.23081931,0.697134,-0.5395243,0.29651743,-0.83364147,0.6136968,-0.5994385,0.49988294,0.07516362,-0.16165702,-0.49077857,-0.099293366,1.0405478,-0.5144928,-1.2360783,0.7879432,0.5981848,0.19733718,-0.88211894,0.47415754,-1.0041797,0.7576359,-0.44512916,0.055249773,-0.72108644,0.61385155,-0.5488031,-0.3522011,0.86821187,0.0033931583,0.5156401,0.106198065,1.805404,-0.04121012,0.60817915,-0.08667248,-0.114073865,1.0017203,-0.9918712,0.018181473,0.10242057,-0.994644,-0.060377717,-0.65917426,-0.19045593,-0.25771874,-0.80251044,-0.3183862,-0.25443786,0.14981566,0.6507939,0.18050998,-1.0328774,-0.44064298,0.59346133,-0.08984244,0.44838694,-0.43144146,-0.70055574,0.45696247,-1.2985594,0.71245694,0.79483986,-0.5541616,-0.5703491,-0.82701164,0.4294174,0.6212513,-0.62218916,0.94848716,-0.66018647,-1.2442927,1.4735863,0.37760192,-0.3898322,-0.9937874,0.28025675,-0.7213657,-1.0544391,0.4715005,0.24925001,-0.91015106,-0.3402222,-0.33975598,-0.70852786,0.38308924,-0.76485145,0.14683852,0.15023808,-0.13119644,-0.39320886,0.26795435,-0.68447924,-1.0360693,-0.7060754,-0.3236194,0.23648174,-0.14869386,0.06634745,1.1319816,1.9229378,-0.111457154,-0.29851964,0.42461193,1.258688,-0.9634343,-5.397245,-0.25961158,0.41212437,0.6333271,0.58466977,0.5541629,0.122715205,0.12485879,-0.16915125,0.9684712,-0.84706235,-0.8382945,0.30088654,0.6747755,-0.44631097,0.17730343,-0.093573,0.61478037,0.72375655,0.48166606,-0.3145255,0.67053443,1.1625609,1.2531579,-0.056992155,-0.55097246,-0.5276605,0.17521077,0.9903702,-1.0898757,0.25201377,-0.3217367,0.8201044,-0.35465977,-0.2758966,-0.90758014,-0.40572774,-0.91512597,0.8784492,-1.2397662,0.7002822,0.31984714,-0.4609604,0.5699013,-0.3782883,-0.8063434,-0.51709265,-2.5735073,0.1500611,0.19376189,0.31932223,1.005599,0.10011022,0.7961069,-0.36668837,0.07103901,-0.8645969,-0.71738183,0.4170586,-0.18854257,-1.06693,0.8460753,0.5229095,-0.2750831,-1.2538869,0.6970468,0.45612842,-0.35638592,-0.6624278,-0.8945157,-0.71831095,0.21396567,-0.36572182,-0.41527843,0.18265897,0.11946213,-0.119316265,0.18392956,-0.15281594,0.5930992,0.91298884,-0.39024007,0.08861841,-0.584235,0.35903338,-0.42222875,-0.15207511,0.7589283,-0.024255037,-0.051968172,-0.21330945,-0.7429916,-0.29790857,-0.4336672,-0.35030356,-0.655971,-0.031156082,-0.39860907,0.041361697,-0.0997825,0.33079627,-0.6787696,-0.11188237,-0.102096856,-1.418508,-0.15012014,0.9490124,-0.52053696,0.04710197,0.07560739,0.44076914,0.39286253,0.19456422,0.78260046,1.5441222,-0.4963156,0.9025525,0.56257504,-1.1179852,0.22526816,0.4545401,-0.22069259,-0.7569413,0.5964916,0.63264793,-0.6919787,0.8896517,-0.43902907,0.89571494,0.8937096,-0.18922025,-0.32322377,-0.9057147,0.12600587,0.64479434,-0.42225978,0.7660367,-0.03256478,-0.3060245,0.6511992,-0.64826614,1.1828516,-0.452711,-0.31787643,0.25989684,-0.41001946,-0.6771662,-0.34991372,-0.4040674,0.07981814,-0.8281459,0.25416023,0.41855046,-0.8167995,0.42743698,0.18206353,1.1944164,-0.20932633,-0.54992354,0.7768712,-0.25805622,1.0225081,-0.4815377,0.06328545,0.30651683,0.40382054,0.54744977,0.55172235,0.21547322,0.24609736,-0.2741186,0.5658705,-0.4802603,-0.72117925,-0.2928908,-0.2847003,0.35784337,0.12128898,-0.740187,-0.27718604,0.81434065,0.36210263,-0.58285016,-1.1225065,0.18545865,0.8880273,1.6952754,-0.20716652,-0.60688114,0.46841717,-0.7012629,0.13773772,-1.3563405,-0.1836133,0.32552338,-0.4099685,-0.068997905,0.5264315,0.22696605,0.3298768,-0.5578971,0.4220189,-0.61439073,-0.5045801,0.37339318,0.50976276,0.47870147,1.8021791,0.3505776,-0.1721551,-0.69064194
C0231528_A,0.31192502,0.115646616,0.4922105,0.87703735,-0.3834315,-1.0357907,0.12132254,0.24789402,0.4798713,0.5825704,0.4128246,-0.44911712,-0.30776444,1.6449441,-0.65034246,-0.6657775,-0.39582697,-0.19569504,-0.50929433,0.016347801,-0.92630404,0.33742177,-0.15107422,0.09983957,0.4433749,-0.5834869,1.1867248,0.79466915,-0.15803662,0.6236399,-0.14131208,-0.6090089,0.66397566,-0.46189007,-0.3998945,-0.59555,0.35177743,1.0298431,0.26083767,0.15615529,-0.17406401,0.23007672,0.68573713,-0.8188792,0.16878545,-0.3926984,-0.32369524,0.95365274,-1.5117973,-0.10337715,-0.14789706,1.3307523,-0.03038256,-0.54182774,-0.32777053,-0.7214728,0.77619267,-1.2222255,0.38845584,0.79389143,-0.24120063,-0.82994115,1.00069,0.37975132,-0.967038,0.6828743,0.040810917,-0.24785799,0.84302825,-0.76136386,-0.26712528,-1.1880027,0.4968662,-0.3315181,-1.3633322,0.40359482,1.0523957,-0.30752718,0.7203658,1.358658,-0.7017635,-0.5951507,-0.57561743,0.98257536,-0.40284023,-0.05665957,0.76103413,0.6175286,-0.7373651,-0.017103862,0.41962263,-0.75926495,0.4075969,0.010559926,-0.25971302,0.8607549,0.58656096,-0.5798213,0.3837747,-0.82626015,-0.47898105,-0.63786495,0.42586273,-0.64047766,-0.37526616,-0.4139288,-0.8025264,-0.550367,0.84912884,0.26945183,0.89780223,-0.49306142,-1.0258813,0.9833781,-0.35198033,0.4798082,0.683619,0.7447871,0.6470345,0.19028944,-0.88810277,-0.22544838,0.09476655,-0.117094174,0.5108064,-1.0798106,-0.36615452,-1.5686774,0.03978464,0.48677242,-1.972282,0.83751476,-0.24485952,-1.4623102,0.70538384,0.104195826,0.011994645,-0.39272395,-1.864869,-0.94641995,0.30899334,-0.16126221,-0.07406319,-0.76548404,0.24222045,-0.37591672,0.6536072,0.3625441,-0.45688784,-0.06958578,-0.078517504,-1.0517583,0.65848774,1.5434498,0.3075759,-0.507068,-0.14956889,-0.7505176,-0.75516796,-0.051290125,0.0972205,1.1472148,0.38303027,0.2546357,-0.51327056,-0.048621964,0.120679,0.44839057,-0.34483966,-0.07902084,0.53431255,0.26957187,-1.0978789,1.2421939,-0.15956572,0.24144548,-0.45343256,0.38351974,0.2804397,0.016463615,0.5177889,-1.2394261,1.0256686,-0.81438214,-0.47244745,0.85476595,-0.7417536,0.27320555,-0.0882419,-0.10299309,0.054125834,-0.48314485,-0.10523702,0.020076629,-0.5218976,0.025234528,0.4537519,1.269312,-1.3499641,-0.29131335,0.49402484,-0.077028766,-0.33111578,0.112105176,-0.11323229,0.3888615,0.12201679,0.006827105,0.07312785,0.71096814,-0.2757544,0.6024109,-0.2611378,0.22213863,0.30124515,-0.14615089,0.7218632,0.25601533,-0.9445815,0.21814215,-0.0032194406,-0.84584117,-1.2712915,0.7665551,-0.6103023,0.26082313,-0.9125617,0.59386134,-0.593161,-0.76307905,-0.81157285,0.038806695,-0.064771056,0.17028894,-0.08929113,-0.3546443,-0.76868117,-0.2981395,-0.005746305,0.4355016,-0.13635822,-0.29144886,0.1885903,0.065908976,-0.15427549,-0.55341715,-0.6257962,0.25608855,-1.0236707,0.07757517,1.3801311,0.14221862,0.09452434,0.6009214,0.6747353,0.21087155,0.2964027,0.029896319,-0.8871218,0.3949496,-0.115101464,0.25883663,-0.08684924,1.3404434,-0.8068344,0.15815644,0.8837271,0.19837481,-1.1530367,0.47336477,-0.29966933,-0.88381827,0.19109109,-0.73182327,0.03797447,-1.1120056,-0.4510687,-0.30652165,-0.9129381,-0.21514684,-0.051139608,-0.315029,0.83107615,-0.49693272,0.2576475,0.4956464,0.037225187,-0.8481537,0.1519984,0.45910868,0.28354502,1.0177305,0.31394678,-0.5286494,0.4196084,0.14833064,-0.2765025,-0.23319115,-0.3522919,-0.7019845,0.2525896,0.3961961,0.43318373,-0.18970022,0.5346149,-0.47935405,-0.5781653,0.416122,0.6247598,0.22188914,0.29118344,-0.37741178,0.57429516,1.3292674,-0.8392308,-0.66365683,0.39586878,-0.49725252,1.2588912,0.29120934,-0.37740552,-0.6350616,0.3604291,0.8336406,-0.8152063,-0.5441666,-0.3748222,0.12384196,0.1569471,0.6346931,0.44957083,0.43422908,-1.1031154,0.93092316,-0.7754874,-0.0887764,-0.5232448,-0.49656716,1.2077839,0.81103253,0.52821535,-0.15399407,-1.5230588,0.93562496,1.0206537,-0.7842521,-0.6611834,-0.27126622,0.63830703,-0.05378946,-0.02101051,0.3101982,0.16497737,1.0273619,-0.09340474,-1.6203655,-0.13364542,-0.42117435,0.93159044,0.048283644,0.22429758,-0.23845783,0.0038498342,-0.29235268,-0.5689896,0.5388109,-0.35122445,0.4845989,0.58969903,-0.57145524,-0.43068793,-0.7822192,0.17204048,0.56758016,-0.5335839,-0.032560274,-1.1472465,0.10040002,-0.7165603,-0.050329752,0.09222354,0.8193264,0.5443291,-0.50900304,-0.048910033,-0.6071695,0.9746718,-0.4818555,-0.1352814,0.40495408,0.51882315,0.475773,-0.33429748,0.34011453,-0.10763046,-0.70454174,-0.5670969,-0.9087642,-0.25824648,0.020789668,-0.83005595,1.6904263,-0.17019516,2.0119927,-0.24473104,1.4346577,-0.34802264,-0.54712903,0.5773879,-1.3065392,0.87530035,0.6866428,0.5508229,-1.0025998,0.21792789,-1.2589381,0.18236108,-0.113717414,-0.3442176,-0.5030169,-0.04856415,0.30303827,1.40981,-0.62850726,0.57569724,0.032815136,-0.26177016,-0.06727305,-0.15031695,-0.30157727,0.060506105,0.53092796,-0.22165777,1.3759935,0.14850493,-0.41180608,0.07744567,-0.9976364,0.43545774,0.30704716,0.9868017,-0.4873766,0.18578865,-0.73377895,-0.845138,0.52483064,0.4652954,0.044615537,0.85762537,-0.0034170263,-0.16816744,0.30840555,0.45268595,-0.17252296,0.54546094,-1.8345022,0.3998684,-0.28873697,1.4664785,0.6588074,-0.1840436,-0.7636448,-0.062108092,0.17305748,-0.41945258,-1.2578347,1.037763,0.8157433,0.99681795,-0.30813518,0.7323302,-0.1702252,0.28005782,-1.0401826,0.43823066,-1.2965626,0.44613597,-0.56323993,-0.23036295,0.31825837,-0.78752965,-0.06992473,-0.028672233,0.9258462,-0.4172007,0.7285572,-0.17243823,0.29243287,0.40017027,-0.974345,-0.2975526,-0.4087162,0.07738504,-1.1692789,0.3234032,0.043630447,-0.14893553,-0.37831116,0.0011357889,0.28227526,-0.26880714,0.5582977,0.49579987,-0.9574936,-0.39274508,-0.21244213,-0.18966813,1.3695142,0.1866889,0.09374629,-0.986608,0.7456908,0.7507599,0.8754661,-0.1773071,-0.24094428,-1.1300789,0.42619333,0.582287,-0.57701766,1.6317828,0.26595896,0.7401144,0.9861611,0.8617479,-0.21606459,-0.13168883,-0.7622104,-0.12421839,-1.0575585,1.4730109,0.49117213,-0.6604225,-0.7680177,-1.1698098,-0.24443217,-0.68517965,-0.8279954,-0.37689224,-0.27423412,0.073078185,-1.523016,0.01432395,-0.74202955,-0.53832483,-0.0688498,-0.28381172,-0.3215001,0.308006,-0.048281766,0.972154,2.0097132,0.5434072,-0.45498466,0.44125193,0.44297546,-0.33287534,-4.353843,-0.42258793,0.16435407,1.0980898,0.043799467,-0.51121783,0.37453204,0.03727305,-0.18386924,0.6766458,0.16957082,-0.4648543,0.9994452,0.5016444,-0.057950996,0.4770627,-0.721209,1.1224835,0.4682585,-0.07963704,-0.1162041,0.54426557,0.3300834,0.1380554,-0.22287539,-1.056557,-0.9468731,0.62422067,0.95608896,-0.9514436,0.19698049,0.4596263,-0.76861984,0.8144178,-0.2157683,0.25892082,0.47163272,0.017024353,1.0482647,-1.33801,0.11356265,-0.5723114,0.06300153,-0.21123374,-0.070937246,-0.9347829,0.1982569,-1.7690495,0.3081202,0.37200984,0.10330801,-0.21462882,0.8658668,1.2315269,-0.032930605,0.26116,-0.69114023,-0.6702909,0.6406151,1.5979493,-0.79040384,0.08958592,0.9621442,0.9824581,-0.9004863,0.38544855,0.9634054,-0.66404986,-1.4077382,-1.3939663,-0.29608464,0.32207972,-0.6872955,-1.066864,0.629853,0.27871192,0.8262139,0.29384708,-0.46544403,0.2458942,1.2365204,-0.47542328,-0.38126647,-0.6937491,-0.7069198,-0.2110027,0.15429607,0.7632926,-0.0013383776,-0.7867315,-1.60188,-0.21925683,0.6605615,-0.35470808,0.3062916,-1.2496551,-0.7342707,0.7664315,-0.12172489,0.20925657,0.594682,-0.5812534,0.44572008,-0.40025657,-2.1379187,-0.9696293,-0.37406725,-0.19454382,0.31890112,0.14549455,-0.72955906,-0.17722255,-0.40816367,-0.55492526,-0.10814617,0.08934395,1.3307796,-0.108788654,-0.5422547,-0.44864926,0.5802647,-0.46020263,-0.8846123,1.4700786,0.76409674,-0.6042486,0.53494734,-0.84367234,0.61132145,0.76275784,0.49275234,0.35690218,-0.34719053,0.17024833,1.2226409,0.12985657,0.6139565,0.4632011,0.004952207,0.6285552,-0.5606233,1.0282788,-1.0346704,-0.6185431,0.22984543,0.030069534,-0.15819687,-1.2435158,0.010029703,0.12874223,-0.17153946,0.9169226,0.55175996,-0.20496777,-0.062412933,0.052413367,1.8898351,-0.19726542,0.24335033,0.21281439,-0.34184796,1.4127325,-0.5164209,-0.47003534,0.565101,0.24328691,0.52207327,0.21697454,0.041083563,-0.62335503,0.7695782,0.9036639,-0.37973645,-0.28604493,0.67027307,0.31360042,0.17244063,-0.40837374,-0.44174448,-0.7929853,0.6961895,0.3022409,-0.46817464,-1.2695113,-0.7456039,0.12872536,1.2896668,-0.30652374,-0.72195256,-0.32269657,-0.6011841,-0.11938998,-1.4414428,0.5222976,1.0812471,-0.30848125,0.17481872,-0.39449012,0.85710084,0.32656497,-0.678385,1.1215551,-0.3784225,0.38163853,-0.14660396,-0.2566236,0.42147568,1.361,0.33083695,-0.5207654,-0.98190063
C0476273_P,-0.030769674,0.8626542,-0.27204892,0.2971635,-0.39973313,-1.0270879,0.00036570057,0.1801015,1.3111329,-0.70065147,-0.2822751,0.6633186,-1.5263841,0.37535664,-1.0462562,-0.6021219,-0.10401761,-0.46049476,-0.20652375,-0.5749106,-1.282664,-0.4094572,-0.19382684,-0.73719823,-0.27636188,-0.5058957,1.7682812,-0.16413033,0.18661563,-0.53848964,-0.96417207,0.83625257,-0.0660028,0.19806993,-0.9972185,0.39402854,0.24845488,1.0853893,0.6712043,0.57234925,-0.32529292,0.90317816,1.091904,-0.0064117927,0.5464094,-1.129568,-0.004087113,0.93144345,-0.42388183,-0.42757112,0.8934677,1.7847914,0.5345547,0.19550243,0.040396865,-0.5361184,-0.4264722,-0.13642108,0.2838552,1.1544615,0.3779429,-0.67088073,0.89806163,0.9503952,-0.4141941,0.46441308,-0.12733875,0.57936794,0.55419016,-1.2033589,-0.25437576,-1.473403,0.15110347,0.12331922,0.0017035229,0.15033069,0.9916024,0.14986636,0.4020821,0.015998174,0.16618973,-0.27919778,-0.4589245,1.4090197,0.3036746,-0.21377169,-0.27581418,0.20743488,-0.08650661,0.27117896,0.8964743,-1.1189381,-0.7668923,0.017365864,0.17720199,0.24602753,1.0235575,-0.10562293,1.1494045,-1.2059053,-0.4009808,0.5791972,0.8452961,-0.4537898,0.8465155,-0.5716136,-0.13435878,-0.11382802,0.527704,1.3705221,0.83346456,-0.2901395,-0.12746811,-0.32576436,-0.38758242,0.029712703,0.12760824,0.080022775,0.065046325,-0.6461407,-0.43166402,-0.4130734,0.35601127,0.36681604,-0.4914619,-0.979043,-0.57786554,-1.2300158,0.41374543,0.05960951,-2.3764465,0.8335922,-0.26850864,-0.23685774,1.094648,0.8309682,-0.33335784,-0.9344036,-0.8504859,-0.37288037,0.12523212,-0.22838679,-0.3855806,-0.50620556,-0.28568253,0.5649901,-0.7080277,0.68333983,-0.65040064,-1.5273231,-0.30017936,0.22887507,-0.11608352,-0.30370882,-0.52794063,-0.5286313,0.029834751,0.37641704,-0.18598826,-0.48441488,0.70452416,0.7267468,-0.37015146,0.13645317,-0.12305987,-0.3960009,0.5421757,0.5909692,0.11233231,-0.42547065,0.21794808,0.32288647,-1.1890613,1.795335,0.7098041,0.8349701,0.40864035,0.38073897,0.49760896,-0.3843058,0.9899279,-0.35436383,0.62841314,-0.6574419,-1.104686,0.8385409,-0.51379836,0.6738725,0.5615552,-0.6337404,0.5366206,-0.22311196,-0.48004147,-0.15544416,-0.6054208,0.16436592,-0.67230934,0.39473617,-0.7767166,-0.60360736,0.80123514,-0.2565592,-1.4927436,1.0770856,0.48087355,-0.38998055,0.28036392,0.13442774,0.20724052,-0.82076466,-0.30100733,1.3414043,0.7523205,0.41419297,0.32262838,0.4215529,1.2215395,0.4318692,0.00057771057,0.15455067,0.70304984,-0.049815767,-0.2509473,0.094588295,-0.16746767,0.19070952,-0.765277,0.4089413,-1.7087488,-0.23426642,0.50842893,0.67613,0.6699561,-0.5151704,-0.3687775,0.06617808,-0.22879432,-0.43804756,0.15300368,0.9446178,-0.12428051,0.50408393,0.8471889,-0.1509854,0.72008604,0.38804382,-0.547621,0.35302973,-0.12121791,-0.5926039,1.1296186,0.33245417,-0.07078868,0.011420302,0.47874254,0.074275754,-0.39619806,-0.6543876,-0.6515957,0.28715962,0.39398074,-0.9011738,-0.024159435,0.99718076,-0.16847958,0.20492683,0.06324511,0.6005663,-1.095593,-0.14182338,-0.6875418,-0.9079027,-0.47364095,0.37744924,0.4996562,-0.23314703,0.091382466,0.4862293,-0.022687905,-0.8122696,-0.38432875,0.4471492,-0.18215252,0.4213845,-0.14160585,0.7221162,1.481639,-0.20795406,-0.36098507,1.0258532,0.029378902,0.632008,0.050872706,0.5297172,0.34880188,-0.13714817,-0.9765668,-0.2773916,-0.05275796,-0.20596726,0.10851675,-0.20554876,-0.36562502,0.0052022897,0.1955122,-0.027034082,0.17035475,0.7124867,1.5704056,0.35171133,0.93101335,-0.49646863,-0.37989032,0.94725305,-1.0933048,-0.64125144,0.1637881,-0.38808954,0.5633708,-0.03548944,-0.45561278,0.118136264,-0.592142,-0.42791206,0.12665513,0.43189198,0.049174022,-1.0009049,0.23117317,-0.1100691,0.09748308,-0.4226116,-0.6049422,-0.34442997,0.65129995,-0.10424618,-0.8879973,-1.0592464,0.3046345,0.89483404,0.56086385,-0.3608442,-1.4932975,-0.112694636,0.44191504,-0.7018149,0.6533323,-1.7328744,0.41549325,0.6612457,0.47581795,0.3959769,0.531685,0.55047756,0.4996538,-0.675596,-0.21060811,-0.38742104,0.49705106,0.056246124,-0.85827786,-1.4731355,1.4905611,0.09365168,-0.21185869,0.7996861,-0.5008823,0.28830448,-0.09642575,-0.17241329,0.48519272,0.13164812,1.0146284,1.2229942,-0.34888732,-0.44756526,-0.6157867,-0.67584,-1.1413225,-1.2327435,-0.36247355,0.28647816,-0.26081258,-0.3905847,-0.0023143552,-0.37198323,0.20940658,-0.2553125,-0.37170655,0.9346105,0.55827916,-0.6616765,-0.21956208,-0.41151315,0.36459097,-0.26393062,-0.4275847,0.4579161,0.5611753,-0.5890292,-0.50577855,0.24890321,0.03256315,0.9769132,-0.48343757,-0.09127144,-0.9553149,0.9054362,-0.12309176,-1.0148596,-0.23748991,0.43999773,-0.9332188,0.272816,-0.59872055,-0.8397181,0.42622024,0.37958977,0.7738389,0.43957546,0.005391963,-0.42379248,-0.067045406,-0.65981907,0.33948353,-0.22132114,-0.24422973,0.56709933,0.060173996,0.9235674,-0.83408314,0.027518343,-0.45876956,1.0633067,-0.43315077,-0.7245625,0.51972467,-1.1067796,-0.13222764,0.7098206,0.15825349,0.039944433,0.5700481,-0.760231,-0.34310097,0.20105062,0.49301356,0.3355584,0.35929462,0.45572937,-0.078732245,0.38325667,0.37665674,-0.4698314,0.7204913,-0.87773675,0.8525862,-0.35573137,0.31832895,-0.123222135,-0.35576084,0.0029479042,-0.042285647,1.3848876,-0.44630688,-1.203706,0.8213168,0.8240972,-0.0018897355,-1.004429,0.38285866,-0.49836388,0.9501182,-0.55336326,-0.030382682,-0.6555069,0.970086,-0.7168923,-0.36888877,0.78724885,-0.28419504,0.6857658,0.29773554,1.2845452,0.27987,0.9870508,0.45649627,-0.6020473,0.59373796,-0.8571183,-0.7031878,0.055235647,-0.824026,0.6422426,-0.73067826,0.09670958,-0.25761643,-0.64117455,-0.24510893,-0.2062625,0.27939084,0.42264915,0.061448697,-1.1123192,-0.72856456,0.812402,-0.15845187,0.3697537,-0.47105587,-0.72955567,0.3548786,-0.80704284,0.51784205,1.034096,-0.3809256,-0.7721091,-0.87165654,0.59288377,0.29539448,-0.6596555,0.968238,-0.93870723,-1.064881,1.0558043,0.3972338,0.17083886,-1.0963569,-0.00031766668,-0.40725756,-0.8913755,0.9753448,-0.12835328,-0.5968671,-0.21367837,-0.58515877,-0.27644682,0.4944184,-0.60981107,0.2968963,0.0029940456,0.19150983,-0.22281021,0.092553735,-0.36045977,-1.0070734,-0.48040557,-0.091433726,0.1626709,-0.11820875,0.2930897,1.2461735,1.925783,-0.42631072,0.055191882,-0.012311798,0.84651935,-0.6594052,-5.612407,-0.22532615,0.4275493,0.34825006,0.4219033,-0.044890713,0.36957312,0.387005,-0.16189404,1.0949684,-0.88676935,-1.075881,0.24906372,0.860011,-0.93572086,0.08889778,-0.31672287,0.73805356,0.8651622,0.72459465,-0.24278653,0.19420706,1.1952351,1.0708979,0.3752481,-0.32586405,-0.73156375,-0.11957172,0.51935965,-1.3434328,0.0710503,-0.41429532,0.52370995,-0.7048594,-0.69130975,-0.99583393,-0.50363874,-0.8166656,0.57461685,-1.2039564,0.21960124,-0.22463498,-0.114171974,0.6557638,0.051165808,-1.2719508,-0.4359905,-2.3026748,0.67918044,0.6016425,0.6548393,0.90174204,0.023157394,0.6493523,0.03710878,0.20606825,-0.8233112,-0.8198906,0.21708977,-0.22632931,-1.4926003,0.89923924,-0.06120371,-0.0028649643,-1.1036288,0.56569797,-0.058484066,-0.29958215,-0.5948588,-0.13485226,-0.70282626,0.282121,-0.21296641,0.02960017,0.14279953,0.18229337,-0.11592595,0.1203473,-0.24671525,0.36928514,0.61341226,-0.10325815,0.17168643,-0.33519623,0.33111104,-0.31349036,0.40868798,1.2590607,0.21146408,0.1622711,-0.32741505,-0.9901071,0.68525904,-0.7961278,-0.9768548,-0.45016962,-0.096659414,0.00034968928,-0.012100913,0.23202048,0.2287868,-0.6094167,-0.5561729,0.005331278,-0.70214456,0.2231053,0.7389578,-0.61474264,0.35133514,0.043672908,0.2877886,0.20525122,-0.73145425,0.4946781,0.9425201,-0.8836257,0.8909781,0.33798647,-1.0004708,0.08434999,0.4106522,-0.45240805,-0.39308536,0.24061453,0.7033208,-0.43934217,0.67543936,-0.5334017,1.1452503,0.93578076,0.11026933,-0.036312092,-1.3614438,0.27671936,0.40358305,-0.3730929,0.40604895,0.006294664,0.21446967,0.46661612,-0.47581893,1.0015026,-0.38167715,-0.39240983,0.43997562,0.22475208,-0.6321957,-0.39013052,-0.5380026,0.044256404,-0.98102206,0.39528668,0.24509156,-0.8990237,0.16349877,0.18936326,1.2876188,-0.3331075,-0.69418395,0.4993445,0.09559485,0.14376757,-0.3773697,-0.3058231,0.61975265,0.42874756,0.84638494,0.24868016,0.1593837,0.3031231,-0.35599425,0.14152975,-0.61456037,-0.66377604,-0.49208125,-0.3440559,0.76332706,0.24624124,-0.75856936,-0.20372508,0.6334061,0.96486443,-0.8085595,-1.4830612,0.25097954,0.56509674,1.4047775,-0.34627905,-0.293215,0.27546287,-0.62987417,-0.31057945,-1.0357761,0.10609226,0.59293914,-0.72336,0.2549735,0.45604178,0.21938547,0.29763207,-0.6310569,0.3718847,-1.0137142,-0.18063882,0.48365557,0.11726785,0.9130408,0.98906606,0.41972438,0.11339099,-0.9848185
C0476273_A,0.20533347,0.1485725,0.53278536,1.0019224,-0.3804754,-0.8763447,-0.19930546,0.35211065,0.87456167,0.3651519,0.5431415,-0.79724187,-0.046273753,1.7470298,-0.7358867,-0.49612433,-0.3900359,-0.33205837,-0.45384786,-0.0974636,-1.1317693,0.18923736,-0.55035484,0.11578442,0.46972302,-0.64304477,1.0561066,0.5675485,-0.03481713,0.63678503,-0.0040571857,-0.67757,0.9611918,-0.4150055,0.0018730462,-0.8345839,0.11459033,1.2375683,0.36020613,0.058351718,-0.08878909,0.28188866,0.41953078,-0.91182196,-0.051193327,-0.35170048,-0.42935705,0.9676609,-1.260158,-0.22820427,-0.14038594,1.3101121,-0.044231325,-0.5513832,-0.4695011,-0.8082808,0.7344871,-0.9862268,0.32473525,0.7249218,-0.21531963,-0.72349846,1.1834726,0.43855923,-0.7697051,0.7625018,-0.068520665,0.22608966,0.67572707,-0.6165767,-0.72346646,-0.8496782,0.11924025,-0.2722244,-1.7043991,0.29838747,0.5418068,-0.09774638,0.67371565,1.239344,-0.49973056,-0.6674918,-0.73911536,0.60164523,-0.35181808,0.2909395,0.57593143,0.1505781,-0.53939265,-0.44185132,0.45395058,-1.0328968,0.4104082,0.2707119,-0.47955796,1.051715,0.5430913,-0.53407717,0.44971538,-0.81963444,-0.56691486,-0.920724,0.32437235,-0.26338223,-0.78665143,-0.5300842,-0.8023359,-0.77942455,0.74471706,-0.017871767,0.9955258,-0.5275558,-0.70735073,1.1003166,0.10064039,0.5520227,0.70814323,0.739504,0.6665366,0.062392928,-0.61570877,-0.06227706,0.047870528,0.0061047263,0.52944386,-0.94683087,0.053542826,-1.3729181,0.13915431,-0.017656349,-1.6068963,0.9326404,-0.24707752,-1.7323447,0.86160713,0.05768799,-0.036978647,-0.4379249,-1.7260593,-0.986195,0.3608267,-0.23835495,-0.22553971,-0.6876003,0.36730975,-0.589251,0.30688125,0.3645019,-0.3725977,-0.3167494,-0.0061311563,-0.85482687,0.43530333,1.751469,0.3112626,-0.7750345,-0.14102326,-0.61291945,-0.6917358,0.26635218,0.2103986,1.3793709,0.6395292,0.22178127,-0.7662578,-0.00961243,0.2280739,0.42563543,-0.28292635,-0.30018687,0.3323207,0.47652334,-1.2200443,1.0261585,-0.096872695,0.2726525,-0.23315224,0.70608807,0.24858528,0.13843133,0.38877964,-1.1056615,1.249013,-0.51405346,-0.27586877,0.7668458,-0.3619443,0.60547835,-0.112357736,0.058525167,0.48154593,-0.36024016,-0.15055813,-0.2679133,-0.53680986,-0.03599075,0.5022568,1.4437798,-1.3612236,-0.43891063,0.65370643,-0.33316666,-0.73686665,-0.34045473,-0.09265538,0.17223275,0.37925127,-0.07163267,0.059607558,0.46823815,-0.06443073,0.85553867,-0.33963746,0.16249985,0.54246485,-0.33688807,0.870518,0.27468282,-0.531308,0.18537569,0.2656392,-0.47026622,-1.3268917,0.960176,-0.49535185,0.082157895,-1.028403,0.049727876,-0.6272603,-0.76104546,-0.6231862,0.56669813,-0.006454885,0.29190078,-0.045208614,-0.2804984,-0.36999875,-0.27812564,0.26735353,0.3434788,-0.105274364,-0.16932733,0.39105493,0.036197744,0.02421348,-0.8685456,-0.8064292,-0.11812633,-0.8145102,-0.10631476,1.2744251,-0.07551476,0.156294,0.6541394,0.9726685,0.3157698,0.116398826,0.04267579,-1.0752556,0.5414402,-0.5239764,0.24482486,0.08369764,1.349838,-0.9825516,0.17269036,0.7642259,0.009234738,-1.1208518,0.43547812,-0.15851776,-0.7798348,-0.03662939,-0.5487439,0.20765573,-1.0296952,-0.45734125,-0.37658465,-0.8726749,0.10045168,0.16431208,-0.4533595,0.70309603,-0.57066953,0.3083404,-0.007078614,0.071081504,-0.69150466,0.041641053,0.32920697,0.35154584,1.0759654,0.029307649,-0.41404325,0.03213665,0.19914117,-0.40520784,-0.1979736,-0.34317237,-0.6073102,0.30167577,0.6426451,0.3082662,-0.37129563,0.54062176,-0.82323515,-0.3935908,0.53610504,0.5661657,0.6460573,0.375443,-0.22430117,0.69684136,1.4717513,-0.5968205,-0.7024101,0.45339566,-0.62763274,1.093744,0.44523016,-0.3270799,-0.6069873,0.16074005,0.83886725,-0.8563058,-0.70444596,-0.5288608,-0.15051436,0.30577117,0.70111895,0.56793475,0.3401863,-1.1263531,0.91860944,-0.47233433,-0.12149285,-0.8115665,-0.055616766,0.8002232,0.8925631,0.40016973,-0.12859377,-1.4635137,0.7386389,1.0119296,-0.638041,-0.32092598,-0.34721488,0.56150967,0.16479304,-0.21016899,0.6611752,0.20911348,0.9102095,-0.23966579,-1.6973207,-0.20446064,-0.51062876,0.8243298,0.43502623,0.42505553,-0.43850315,0.2928458,-0.089446165,-0.66169655,0.40596047,-0.43718663,0.25363365,0.231608,-0.58676964,-0.39277768,-1.006146,0.33361956,0.51059115,-0.59315884,-0.2533817,-1.0881773,-0.02717688,-0.49803814,-0.27137414,0.19001019,0.61556405,0.38119227,-0.5668023,-0.0016252212,-0.6903248,0.9872387,-0.29105622,-0.5131955,0.45654187,0.6631912,0.65581083,-0.14179277,0.36968753,0.2280767,-0.34000206,-0.5622634,-0.65496904,-0.27805564,0.043990508,-0.6168004,1.7219758,-0.33030432,1.7914491,-0.08721265,1.5309149,-0.3271842,-0.5705671,0.7278091,-1.4499773,0.8590906,0.9222396,0.2773568,-1.1425407,0.43440223,-1.1688482,-0.19226089,-0.26927662,-0.2978843,-0.57132167,0.030686192,-0.06817463,1.4763951,-0.72179216,0.4438072,-0.05662767,-0.24838139,0.08022034,-0.10869778,-0.5734857,0.13378903,0.27646938,0.027606614,1.2269092,0.26022407,-0.29308575,-0.287089,-1.0842792,0.7579087,0.2588184,0.80548376,-0.43815973,0.3646587,-1.0792761,-0.502603,0.07271187,0.49594733,-0.08528628,0.528589,0.042845517,-0.016088367,0.37667483,0.33399692,-0.17369018,0.6201321,-1.8090272,0.5280827,-0.6495628,1.3881401,0.34438282,-0.26816097,-0.17994218,0.12166544,0.1493386,-0.438978,-1.3412427,0.74961054,0.7878415,0.8897103,-0.6142379,0.92082745,0.0051320046,0.37087795,-1.2021708,0.101074606,-1.5840827,0.5172059,-0.6515215,-0.40773517,0.16643125,-0.77151084,-0.23032066,0.24958846,0.7882081,-0.46665692,0.92548835,0.23159498,0.041111946,0.2034717,-0.68574375,-0.48615715,-0.74173635,0.15063971,-1.3190334,0.47904426,0.19278254,0.0692229,-0.053926855,-0.009746816,0.17807588,-0.077719264,0.33426678,0.68877316,-0.89593303,-0.4899903,-0.1315386,-0.372992,1.289795,0.36410537,0.134588,-1.049103,0.99634403,0.90529376,0.9836497,-0.29542607,-0.27282137,-1.0129544,0.1647043,0.24320805,-0.52753454,1.9750396,0.23962787,0.67877334,1.0521573,0.74978423,-0.053200364,-0.10703823,-0.96137875,-0.167455,-0.6744858,1.7422119,0.30352804,-0.7998577,-0.8166897,-1.2405554,-0.0017509833,-0.96562004,-0.5658036,-0.57152367,-0.12377612,-0.037445538,-1.4013774,-0.44381797,-0.5507504,-0.44445506,-0.2274639,-0.3734356,-0.5461484,0.53597814,0.43340275,0.75735015,1.8202949,0.1509554,-0.29345748,0.4851125,0.17656007,-0.29054725,-4.476923,-0.48577648,0.33713838,0.67524064,-0.3201251,-0.824664,0.7337278,0.4679049,-0.049079448,0.5534842,0.23809768,-0.1272841,0.7633513,0.73800707,-0.11390308,0.4292391,-0.6152954,1.274762,0.4167367,-0.016575158,-0.2777181,0.7349545,0.18702725,0.17045116,-0.34980577,-0.96524096,-0.60686976,0.40680572,0.6704417,-0.53887266,0.16727516,0.7286611,-1.0521805,0.69465774,-0.27652776,0.3092468,0.38770187,0.05470694,0.97649515,-1.4261895,0.17132488,-0.99460125,0.29396698,-0.20574951,0.17027617,-1.0174581,0.3801446,-1.7808425,0.4702043,0.32919514,0.24235688,-0.22975984,0.73115176,1.091517,0.08399704,0.2029956,-0.61635745,-0.8699266,0.53295374,1.3812771,-0.5487046,0.14767751,0.97833395,1.0487052,-0.9228377,0.19202743,0.6067066,-0.64001226,-1.2928631,-1.3648266,-0.3792322,0.53854865,-0.8590812,-1.0897864,0.8790955,-0.020435616,0.85563725,0.15147828,-0.12428772,0.10718585,1.1360127,-0.14656599,-0.8623784,-0.47564194,-0.7239508,-0.043637745,0.41994932,0.5289099,0.10581988,-0.487481,-1.2426479,-0.27200443,1.1465758,-0.30576292,0.4868852,-1.0827383,-0.6550186,0.9886617,-0.19781967,0.3099003,0.63015276,-0.23943633,0.33075586,-0.65893877,-1.4727159,-0.97530955,-0.26818243,-0.24961782,0.42967248,0.21077839,-0.76064026,-0.050450347,-0.8362233,-0.6497733,-0.026661895,0.103888616,1.0970236,-0.17748515,-0.5134111,-0.63003874,0.49737307,-0.41247237,-0.5916257,1.0651426,0.58007866,-0.6092305,0.11471274,-0.81996864,0.32560155,0.6847667,0.36743358,0.64547414,-0.5837608,0.32319295,1.4444467,0.35533378,0.4917218,0.26448888,0.15362528,0.8103048,-0.53150713,0.8468295,-1.2228613,-0.73987615,0.39143062,0.16757421,-0.21305358,-1.5339798,-0.33936822,-0.06233702,0.02300572,0.745288,0.45347142,-0.4945495,0.1870699,-0.10148822,1.3751634,-0.21908662,0.3560329,0.63771963,-0.16735846,1.4351771,-0.6893822,-0.50150126,0.56116444,0.1263512,0.61094266,0.50828314,0.117364764,-0.5019934,0.7682755,0.74423516,-0.31310952,-0.24729171,0.606249,0.5322098,0.40070075,-0.22910324,-0.3055052,-0.68231606,0.4119865,0.40059286,-0.46935478,-1.635787,-0.7969001,0.021823041,1.2656767,-0.42550093,-0.694341,-0.3315155,-0.67106766,-0.18557316,-1.4472983,0.4844666,1.0666187,-0.46550778,0.51205075,-0.30414,0.9087399,0.18749389,-0.43128192,1.2475077,-0.36479667,0.4041001,0.31477183,-0.53281945,0.7800197,1.111542,0.3284102,-0.5508461,-1.2872349
C0018681_P,0.47347495,0.8214588,-0.1311506,0.2702883,-0.49557623,-0.6177034,0.281558,-0.11887163,0.43520343,-0.8224444,-0.6546604,0.38704887,-1.9824595,0.3058628,-0.8574709,-0.35307443,0.15053979,0.065102495,-0.14291646,-0.3426498,-0.9398149,-0.6319152,-0.6342238,-0.3267609,-0.4781142,-0.3062278,2.1022744,0.018822283,-0.5236735,-0.75529563,-0.6750384,0.7676554,-0.38807285,0.1660766,-1.1804606,0.49908885,0.5126929,0.61420435,0.5427764,0.29109448,-0.69217575,1.1252053,1.2848234,0.046445496,1.1242914,-1.2304921,-0.061782792,0.3138218,-0.34960252,-0.22559018,0.53415316,1.0425235,0.50720966,0.1234618,0.17746057,-0.33594203,-0.5851349,-0.29345787,0.2116565,1.0884337,0.20777488,-0.32627785,0.96745986,0.8859328,-0.72067094,0.1672764,0.20541397,0.09585566,0.58372635,-0.91920686,-0.34061486,-1.16486,0.51179445,0.016541095,0.27095512,0.25127316,1.1932038,0.31023198,0.3877798,-0.15955926,0.25243795,-0.5285428,-0.49371767,1.2250124,0.0005594827,-0.018731423,-0.13097844,0.24612209,-0.40508273,1.3094966,0.9795669,-0.6406326,-0.45204115,0.26666233,0.26362747,0.4661031,0.3935898,-0.12327531,0.2334265,-1.3323414,-0.41167402,0.6105879,0.5120907,-0.5367491,1.479782,-0.14132074,0.8160882,-0.18631488,0.70311666,1.9809302,0.30915263,-0.07725693,-0.32522,-0.84780157,-0.16460909,-0.4448878,0.34974372,-0.37703505,0.3098776,-0.55254453,-0.33516523,-0.15481831,0.11138165,0.44521424,-0.44781387,-0.50692564,-0.6741942,-1.0208294,0.27541804,0.43278524,-2.0199397,0.2867009,-0.389801,0.39086202,0.8164588,0.79238874,-0.53390837,-0.91018605,-0.4625705,-0.03510647,-0.09589891,-0.11501466,-0.9317344,-0.21384469,-0.34607834,0.5809491,-0.41168517,0.39815903,-0.39901954,-1.1256998,-0.28123844,-0.42567685,0.11239709,0.076346725,-0.93078333,-0.39979425,-0.1468831,0.76032615,-0.26579905,-0.3495738,0.62058103,0.48285016,-0.24633935,0.4686286,0.117892146,-0.22161955,0.8699775,0.2800252,0.104290076,-0.066886246,0.34719315,0.54921466,-0.82537574,0.7148797,0.85307026,0.87137246,0.17794771,-0.10623834,0.52898085,-0.07496188,0.77096754,-0.048911832,0.5215306,-0.7655653,-1.0526279,0.37562025,-0.039230973,0.5168328,0.35773313,-0.65706646,0.37070245,-0.6908918,-0.18797728,-0.47754526,-0.26004663,0.10359221,-0.64783347,0.050561775,-0.44494346,-0.54828393,0.5201634,-0.17406666,-1.3556677,1.3665539,-0.30537894,-0.07147967,-0.035666835,-0.018795427,0.39562985,-0.5582961,-0.994888,0.64514303,0.9410547,0.31151837,0.19371462,0.6868161,0.43124616,0.788891,-0.39895076,0.024488848,0.599743,-0.14798968,-0.23899876,0.3877122,-0.31132236,0.21838346,-0.3229398,1.4071805,-1.4791422,-0.100983284,0.70718545,0.5620136,0.40507406,-0.74404114,-0.7244106,-0.027547479,-0.14702514,-0.12254706,-0.0002670735,0.3432752,-0.22384611,-0.10359234,0.5573497,-0.46774215,0.5305209,0.12575687,-0.2569328,0.69065446,0.19755656,-0.31674334,0.75301284,0.16767088,-0.13790607,-0.42354566,0.334086,-0.18684347,-0.32698798,-0.31899947,0.08780795,0.0062211193,0.840819,-0.7418928,-0.13068962,0.6567865,-0.19996424,0.5045863,0.22860834,1.1356463,-1.029015,-0.45328364,-0.43889216,-0.9087287,-0.39915934,-0.24382138,0.2468217,-0.33933264,0.43403897,0.46795744,0.2649561,-1.1801062,-0.54165554,0.88921,-0.04749639,0.49876076,-0.02366594,0.9700804,0.80131656,0.20292936,-0.11400653,0.9006366,0.5655284,0.18303683,0.024089143,0.4940938,0.79175615,-0.5184038,-0.81924915,-0.0021640211,0.58379483,-0.21870285,-0.3249598,-0.34541836,-0.03062433,-0.13938746,0.13740194,0.6586858,0.013108246,0.51883507,0.92499566,0.31531903,0.8781078,-0.77874655,-0.6280335,0.6079706,-0.99794006,-0.04352297,-0.5769365,0.19657935,1.0436046,-0.19320373,0.29672295,0.5790882,-0.36992133,-0.387866,0.5225719,-0.21193035,0.0487444,-0.3129655,0.40405986,-0.2992436,0.0663764,-0.41040656,-0.3723901,-0.5811669,0.42594457,-0.2841791,-0.625374,-0.44551367,0.22921553,0.3003359,0.7635738,-0.2762181,-0.8749788,0.33650702,0.41228092,-0.73046434,0.49658412,-1.4941666,0.833642,0.01476192,0.8878841,-0.02428256,0.73805845,0.5158444,0.6860329,-0.7764456,-0.30719963,-0.42188513,0.61831313,-0.30530918,-0.571795,-0.9455959,1.4338148,0.2010152,-0.5806611,0.67025816,-0.12835324,0.46505305,0.07218042,-0.07628237,0.37607425,-0.34465677,0.94266176,0.8504464,-0.09364836,-0.9044679,-0.40826663,-0.08277159,-1.1067384,-0.97578263,-0.42982686,0.2591294,0.16631834,-0.44021162,0.29439035,-0.34759915,0.3786638,0.08256601,0.012164636,0.08153226,0.36403936,-1.2670808,-0.037757695,-0.58087623,0.25065303,-0.25616944,-0.36038172,0.6922894,0.5664321,-0.7769753,-0.23946068,0.32056445,0.32889917,1.13515,-0.052245785,-0.22248906,-0.42640018,0.6516588,-0.5278382,-0.5001473,-0.38540393,-0.0028172731,-0.4966635,0.18363123,-0.38824254,-0.41077504,0.32602963,0.9173775,0.27322912,0.8977192,-0.24417022,-0.50603807,-0.04406,-0.63772845,-0.06947072,-0.4535895,-0.37958837,0.4832916,0.19078407,1.2131469,-0.3121794,-0.31800207,-0.6168053,0.545346,-0.37749436,-0.68477696,0.38143563,-0.97696716,-0.22687994,0.45604286,-0.124546275,-0.46308166,0.63434196,-0.87025774,-0.7755266,-0.29063252,0.4462861,0.4413062,0.54904616,1.0065817,-0.32972792,0.08503054,0.4413885,-0.37262374,0.467565,-0.5017503,-0.1747712,-0.7743112,0.16979182,0.010089124,-0.26324892,-0.42869276,-0.5942141,0.8840601,-0.22918841,-0.7607336,0.53400433,0.7448566,0.098593235,-1.0396296,0.25994498,-0.8410015,1.0037293,-0.021972533,-0.5188716,-0.40759748,0.6276281,-0.5790819,-0.51086324,0.93053496,0.4914356,0.8482982,0.29424763,1.3500575,0.16462858,0.32211947,-0.1874362,-0.60148877,1.0337402,-1.0448534,-0.051483665,-0.04828959,-0.89100456,0.28675428,-0.77645737,0.045621544,-0.3317012,-1.0698674,-0.4415144,0.12743324,0.0074110203,0.39430767,-0.13007468,-0.96931237,-0.9098764,0.62656784,0.014010062,0.28190273,-0.5288831,-0.62150115,0.84021926,-1.2868234,0.84455067,0.9015471,-0.44915682,-0.7501478,-0.36170644,0.284208,0.21795127,-0.4175162,0.74650043,-0.7837252,-1.5141605,1.4965869,0.6008215,-0.1232914,-0.8365599,0.36875126,-0.20487717,-1.141283,-0.023089416,-0.12812339,-0.78076375,-0.19264965,-0.4911538,-0.48966008,0.5231133,-0.78416586,0.08424314,0.29253483,0.28621885,-0.25749978,0.22355981,-0.4149445,-0.84297335,-0.37733078,0.03235992,0.23246925,-0.29653555,0.014449595,0.8164568,1.5792775,-0.27994528,-0.13898548,0.6613716,0.9726615,-0.71922785,-6.778807,-0.22437124,-0.08777518,0.66389096,0.5170409,0.29630396,0.14027146,0.54578704,-0.22819123,1.3654935,-0.84267265,-0.8593075,0.1342076,0.57898986,-0.3271402,0.32144237,-0.34524798,0.25991255,0.5053174,0.7036033,-0.43162555,0.6447346,1.2378291,0.8551923,0.14022434,0.021998394,-0.26971206,0.0045530163,0.9848357,-0.8839479,-0.067492306,-0.3434743,0.71367824,-0.443891,-0.08592379,-1.2578118,-0.27950707,-1.0832784,0.28830153,-1.3848078,0.2548961,0.10163178,-0.17870235,0.5490011,-0.39799693,-0.82623273,-0.44270647,-2.2482047,-0.018816615,0.042483594,0.78457224,1.125939,0.19185656,0.6322312,-0.23337886,0.3515136,-0.510166,-0.7587489,0.42829576,-0.4214187,-1.2527776,0.6756126,0.04968831,-0.71426994,-1.0688767,0.53451836,0.13817596,-0.24087884,-0.78910744,-0.3614184,-0.4550782,0.041995395,-0.15752259,-0.00044968724,-0.21462835,0.69812673,0.058667533,0.30541235,-0.2267791,0.5453162,0.65274525,-0.56481135,-0.12194723,-0.3449969,0.3816634,-0.24673294,-0.14307971,1.1122888,-0.39431098,0.44194475,-0.39840826,-0.6858883,-0.053854793,-0.38669705,-0.49177283,-0.30893826,0.24101816,0.07472815,-0.32400906,0.004839836,0.57980186,-0.41267306,-0.048773237,-0.16344436,-1.198588,0.20258763,0.78087056,-0.33431357,0.37813586,-0.29942396,0.80650103,0.05679352,-0.134891,1.2174767,0.934957,-0.45934638,0.6919823,0.72735703,-0.78104043,0.25589007,0.47324368,0.03382655,-0.26102304,0.115595646,0.65346754,-0.59611905,1.150911,-0.6043967,0.40729177,0.5685876,-0.5689298,-0.33733636,-0.95624495,0.56583345,0.5157482,-0.8697112,0.38589284,-0.1647774,-0.3593225,0.33604598,-0.89534545,1.1960616,-0.72240067,-0.47812873,0.45341972,-0.27957943,-0.7411654,-0.15740976,0.037722304,-0.57654595,-0.9452828,0.28899878,0.019420102,-0.77005327,0.48330662,0.19498362,0.7751764,-0.00010944903,-0.47124884,0.534801,0.3585304,0.561042,-0.27427113,0.30768517,0.265236,0.47855735,0.45174095,0.3053009,0.13570848,-0.019787207,-0.46523783,0.43314335,-0.23867846,-0.4698479,-0.45749748,-0.42510563,0.69111425,0.58797944,-0.48256215,-0.017491393,0.54120684,0.9239379,-0.64792365,-1.037187,0.3044712,0.6552423,1.0906525,-0.38834515,-0.56977504,0.049597934,-0.5941895,0.40352163,-1.3033667,-0.13603598,0.35819983,-0.49828845,0.12462659,0.32977343,-0.084796526,0.1917278,-0.25886205,0.18585368,-0.17212906,-0.52381283,0.16655755,0.37466368,0.81637764,1.2160298,0.4376079,0.064471304,-0.5883283
C0018681_A,0.3580647,0.07188384,0.38258362,0.9110191,-0.42534685,-0.69121903,0.19818115,-0.08180952,0.7288634,0.69506025,0.6423582,-0.48500735,-0.04409291,1.580664,-0.65732807,-0.6066324,-0.3085552,0.07228711,-0.60880166,-0.19747816,-1.0575818,0.25999954,-0.18217301,0.21073647,0.3355456,-0.58254445,1.1979364,0.460046,-0.3808055,0.62577474,0.18758458,-0.57232636,0.8742402,-0.5071677,-0.17096111,-0.81324214,0.25069684,1.0548787,0.22204421,0.17900193,-0.19473632,0.25039053,0.82614493,-0.73746866,0.080292806,-0.09625062,-0.4098635,0.7806702,-1.0616308,-0.08164319,-0.26755464,1.1347854,0.051824346,-0.4218973,-0.28986308,-0.95346785,0.681452,-1.1982282,0.22580284,0.5932037,-0.23365022,-0.7761161,1.1165452,0.40452543,-0.82935166,0.75874466,0.22871397,-0.31559554,0.61783284,-0.4519279,-0.4636103,-0.9837291,0.38924986,-0.28797278,-1.4184302,0.26527238,0.71889013,-0.23758423,0.8574323,1.3993355,-0.7211027,-0.6286693,-0.831858,0.74610144,-0.28601217,0.10303776,0.6608763,0.4395126,-0.79391,-0.0071408525,0.4001383,-1.0298612,0.3757135,-0.016926887,-0.75718224,1.2169048,0.4603953,-0.46877414,0.45857233,-0.6442897,-0.49303734,-0.8919639,0.31200343,-0.41977924,-0.41597882,-0.36496824,-0.76001877,-0.78413796,0.7269559,0.34108648,0.93825865,-0.64019096,-0.8185351,0.75698096,0.09604298,0.57918775,0.7895995,0.81751525,0.7695968,0.0767747,-0.7776824,0.083180934,0.06514095,0.23364374,0.46124452,-0.9032223,-0.14279725,-1.1227906,-0.044423442,0.11993843,-1.7412623,0.73853016,-0.3566848,-1.4825577,0.5584007,-0.06820418,0.008953124,-0.44012997,-1.6467677,-0.85240936,0.43530896,-0.1296204,-0.36400786,-0.59252894,0.2439572,-0.46900848,0.63253367,0.30335888,-0.56489515,-0.03019071,0.29818714,-1.0473788,0.6725765,1.6943218,0.07460087,-0.46782455,-0.14080943,-0.7547221,-0.9584331,0.093594104,0.13939631,1.2861165,0.5581228,0.42474797,-0.63576704,0.07113313,0.14941314,0.34738204,-0.2290179,-0.28821564,0.5233807,0.54338706,-1.2091693,0.9126853,-0.216214,0.300445,-0.50474507,0.72092974,0.26687917,0.31763917,0.17109376,-1.3850477,1.248155,-0.6637337,-0.39563978,0.73305523,-0.52445006,0.25973326,-0.47203264,0.061155967,0.32182837,-0.37151074,0.02803152,-0.12064212,-0.5558018,0.06690075,0.5469383,1.3927599,-1.4865141,-0.053016115,0.564525,-0.14962432,-0.80837077,-0.1971331,-0.1371046,0.23061232,0.31384763,-0.26063237,0.14207315,0.7027832,-0.08318031,0.6266655,-0.24735358,0.22719005,0.35852912,-0.2631743,0.83831555,0.37631857,-0.9413692,0.33073607,0.20666921,-0.7111474,-1.3744448,0.97721004,-0.5703584,0.08803826,-0.9819001,0.39696404,-0.4691756,-0.5103509,-1.0616821,0.4664977,0.061747365,0.16289234,-0.18764079,-0.5791373,-0.5576382,-0.26875162,0.10202387,0.18859099,0.22757778,-0.1897679,0.45302752,-0.093619265,0.03381612,-0.7420998,-0.9359407,0.057252843,-0.8093565,0.2407995,1.0854728,0.10706542,0.03151073,0.37611115,0.8367473,0.30433136,0.37025446,0.2350676,-1.1279114,0.39283895,-0.14380498,0.14698057,-0.045508876,1.128504,-0.84843546,0.26573524,0.7294184,0.3234272,-1.2833829,0.2458134,-0.2518587,-1.0536921,0.096506394,-0.62451464,-0.06529673,-1.1747433,-0.6648225,-0.47534633,-0.7583498,-0.17685327,-0.13130303,-0.4201882,0.79433143,-0.27935806,0.21730429,-0.023157889,-0.17325446,-0.5072055,0.42292225,0.64181316,0.1963093,0.8252719,0.18709248,-0.50133055,0.4030337,0.3083329,-0.038453914,-0.21500178,-0.14931348,-0.5657949,0.1408528,0.29205388,0.48062897,-0.059194833,0.6082474,-0.3925314,-0.78482616,0.31352156,0.35365796,0.34618485,-0.030125033,-0.27757865,0.6031365,1.2493973,-0.5723709,-0.6826401,0.25030088,-0.39379585,1.0378376,0.1941812,0.111445636,-0.4668812,0.44341958,0.8305392,-0.8455019,-0.75711143,-0.5978079,-0.05654899,0.12412323,0.82270026,0.7013128,0.48049045,-1.1865532,0.80974424,-0.64733684,-0.1293858,-0.36100546,-0.12635282,0.85470784,0.68719244,0.51154655,-0.26008302,-1.1792618,1.1144437,0.639614,-0.533029,-0.45818552,-0.11751978,0.70988995,-0.09122906,0.043677278,0.5586006,-0.08692208,1.088152,-0.28609192,-1.4849279,0.046096556,-0.4001236,0.779589,0.11933507,0.3905604,-0.3094138,0.051546704,-0.23904234,-0.8084146,0.8149979,-0.10786415,0.46750942,0.4350327,-0.8290775,-0.53678644,-0.9749248,0.07004147,0.43383157,-0.5625123,-0.16656591,-0.9981281,0.11251481,-0.5271975,0.08433832,0.288428,0.48947766,0.4159873,-0.60602075,0.111100495,-0.7834197,0.99313414,-0.35714936,-0.5266303,0.27108482,0.403152,0.7051896,-0.21669315,0.57178116,-0.057508294,-0.69930977,-0.28768492,-0.7137856,-0.5056056,-0.068963066,-0.41418725,1.3627822,0.014849812,1.9862083,0.146976,1.485222,-0.21275629,-0.6583587,0.6081803,-1.3433863,0.950873,0.80692154,0.3864991,-1.2995822,0.38155204,-1.3894314,-0.069469824,-0.6241034,-0.4128167,-0.34627137,0.21282354,-0.076029174,1.1945868,-0.6687865,0.74796176,-0.17838898,-0.33852017,-0.12582853,-0.12351706,-0.31488448,-0.16092855,0.5041857,-0.16463685,1.2897089,0.23365727,-0.18445936,-0.27337682,-1.1778746,0.5329898,0.37534815,0.9727133,-0.21276559,0.24231535,-1.0221124,-0.6776528,0.26626697,0.36596066,-0.16214052,0.54054815,-0.010811182,-0.21889865,0.5451478,0.26804143,-0.11023934,0.64721894,-1.9166694,0.18269403,-0.42726922,1.3618168,0.64963794,-0.06464806,-0.6050909,0.021463051,-0.08391452,-0.28558773,-1.2412153,0.8366327,0.7607052,0.89304084,-0.29019105,0.7028508,-0.034525655,0.27623308,-1.1914991,0.15827188,-1.1387486,0.49174398,-0.9937232,-0.40429786,0.34047583,-0.6041961,-0.07596254,0.36501104,0.81388843,-0.5134681,0.69251233,0.0734594,0.30251867,0.16031075,-0.9384155,-0.41735834,-0.5252511,0.15822919,-1.1712939,0.22726864,-0.05281215,0.017145837,-0.13090438,0.0718401,0.51624465,-0.16476747,0.45567432,0.69889694,-0.98051775,-0.49834234,-0.034047928,-0.33829784,1.326481,0.44475374,0.4338982,-1.0352787,0.96672684,0.77706295,0.7515318,-0.28057438,-0.24877101,-0.9744709,0.08643429,0.5626937,-0.5506352,1.4051151,0.35122004,0.9746049,1.1494361,0.99380237,-0.09141907,-0.26623133,-0.88791555,-0.012119889,-0.83318233,1.3589514,0.608929,-0.65043455,-0.76831365,-1.0207988,0.26867044,-0.80954415,-0.67396295,-0.6558289,-0.15639147,0.16263224,-1.3108841,-0.14759389,-0.63733065,-0.42064637,-0.038273603,-0.36585426,-0.47851986,0.48293155,-0.099447355,0.8623247,1.6107074,0.2806583,-0.21758541,0.5429416,-0.14958937,-0.28487587,-4.886729,-0.44215855,0.22578472,1.0141082,-0.19861147,-0.6756096,0.7193122,0.13271166,-0.1108494,0.6977652,0.4289288,-0.31700206,0.7247332,0.7760428,-0.2479402,0.7044062,-0.60006845,1.2954954,0.48783803,-0.081849955,-0.19620448,0.56263363,0.009394012,-0.24110498,-0.27715626,-0.95021796,-0.6724376,0.6840392,0.9588358,-0.76430583,0.032451075,0.57259524,-1.0462459,0.7720905,-0.18271539,0.46591842,0.25404015,0.13555801,0.94335485,-1.6464618,-0.026991187,-0.55741155,0.14442623,-0.1691803,-0.051368397,-1.0276413,0.24997844,-1.8554412,0.16536984,0.17271978,-0.12148674,-0.23884237,0.8004876,1.1059484,-0.07154939,0.014129242,-0.6041078,-0.763128,0.66098964,1.6381003,-0.77988863,0.23122604,0.83650315,1.0561551,-0.89064527,0.16229843,0.6738017,-0.74231786,-1.4731749,-1.4187346,-0.22735944,0.3591812,-0.71272457,-1.2448235,0.63943857,0.35711697,0.9881399,0.29149988,-0.028595567,0.40433714,1.097282,-0.58525825,-0.57899964,-0.3504651,-0.6297039,-0.19794519,0.35440028,0.7804228,-0.03806969,-0.7645076,-1.6003515,-0.36623138,0.9607079,-0.2805829,0.30046225,-0.9580567,-0.6347136,1.1976621,-0.219402,0.24674764,0.8845491,-0.2737316,0.73816,-0.8341865,-1.8201244,-0.8408728,-0.35681736,-0.20169494,0.21860328,-0.10373979,-0.70439494,-0.37350237,-0.5201551,-0.72312814,-0.2529376,0.071605,1.0256567,0.028015768,-0.36517987,-0.5863931,0.5679684,-0.52266794,-0.29069,1.3192482,0.7185342,-0.65836084,0.42368984,-0.766673,0.37106258,0.87374955,0.2946876,0.4593457,-0.3961947,0.34381038,1.0709399,0.22341202,0.87364125,0.33429548,0.049622238,0.8393572,-0.33810902,0.7857979,-1.4441922,-0.6057916,0.3876309,0.06386715,-0.17278801,-1.2581685,-0.030604672,-0.21384864,-0.21007784,0.8491036,0.5130683,-0.29933316,-0.101263374,0.34087434,1.4109225,-0.14284094,0.42688143,0.30899012,-0.13695872,1.5633265,-0.39282036,-0.39522275,0.5973327,0.20663394,0.46001282,0.26476717,-0.001001291,-0.7779602,0.82498205,1.0545877,-0.42695376,-0.56509215,0.7863015,0.5985879,0.26677614,-0.19033557,-0.26810578,-0.6239172,0.26042613,0.2865079,-0.55251676,-1.2525066,-0.89070666,0.14876391,1.0196517,-0.4358784,-0.40822884,-0.4598707,-0.64146847,-0.04137695,-1.2662259,0.17151187,1.2510989,-0.3497945,0.3019094,-0.34644336,0.93105567,0.023626776,-0.64718235,1.145215,-0.3994717,0.5494579,0.23324382,-0.36383256,0.46583617,1.1939648,0.1910519,-0.51820374,-1.0480827
C0013404_P,0.3532031,0.62579465,-0.3889653,0.10048716,-0.3150241,-0.85411257,0.4217473,0.33925867,0.8537101,-0.14275229,-0.13522203,0.5009209,-1.5609041,0.43883798,-0.7086936,-0.38017288,-0.056123115,-0.21081579,-0.26369587,-0.3830364,-0.9812226,-0.06561896,-0.6525713,-0.1718288,-0.039336037,-0.8577008,1.7031578,-0.2643591,-0.15026955,0.052537568,-1.0955255,0.65747523,-0.22484419,-0.14239243,-0.8443565,0.12510377,0.3695507,0.7759543,0.6355464,0.3854701,-0.25846228,0.89668983,0.93437046,-0.5185749,0.5972217,-1.0385295,0.09400238,0.84501547,-0.6312857,-0.6715984,0.80810905,1.4300604,0.35401085,-0.42723352,-0.09000979,-0.5654082,-0.92218894,-0.79432017,0.42114592,1.6535916,0.12094087,-0.6646941,1.2716777,0.338312,-0.57674617,0.37850308,0.09433615,0.3538433,0.9383841,-1.1565038,-0.1929011,-1.2274551,0.77787167,0.115810975,0.030097045,0.10842154,1.3943915,-0.061315425,0.20942415,0.2130931,-0.07519947,-0.25226846,-0.65304,1.3234267,-0.29044345,-0.34804958,-0.06309807,0.3758877,-0.683088,0.24780126,0.48528674,-1.0769415,-0.4017397,0.30525985,0.29619256,0.3546696,0.75722325,-0.19511813,0.29617363,-1.3358966,-0.39838776,0.23985401,1.1331394,-0.7934735,1.088335,-0.36363775,-0.035465837,-0.29124415,0.60677326,1.5010506,0.67663527,-0.41785035,-0.76981044,-0.20284879,-0.72421795,-0.3072416,0.7430376,0.07652513,0.28386083,-0.40638906,-0.3780141,-0.74030024,0.27909467,0.6611436,-0.6353154,-0.803816,-1.098441,-1.4968858,0.71113884,0.3690257,-2.8538523,0.31867263,-0.40508547,-0.8243978,0.8399013,1.0891646,-0.06690086,-0.71519434,-0.83145916,-0.27814233,0.22001284,-0.3376799,-0.34151623,-0.69963676,-0.87021667,0.25156355,-0.4698099,0.65558535,-0.68654853,-1.6497151,-0.5389763,-0.22273529,0.030411988,-0.23929673,-0.5244077,-0.19851476,-0.35213828,0.054248795,-0.2415378,0.044270903,0.6930045,0.94711906,0.092323996,-0.06801161,0.016887307,-0.38886252,0.53411674,0.20482452,0.40803856,0.12917435,0.017093092,0.41126725,-0.87791723,1.9442388,0.9414577,0.7489382,0.12765431,0.029124632,0.3570876,-0.4738213,1.1808019,-0.18662548,0.5533686,-0.9325634,-1.233669,1.0685185,-0.58394897,0.64773923,0.5318561,-0.38596472,0.2896873,-0.447604,-0.059680797,-0.028248448,-0.92342544,0.3668867,-0.61333567,0.21281172,-0.9966481,-0.67755276,0.7134611,-0.012922823,-1.1191247,1.3832458,0.08529495,-0.68133235,0.05217808,0.73784107,0.4579504,-0.23175386,-0.39131165,1.0329077,0.4183705,0.269379,0.34824112,0.47547203,1.42273,0.46818453,-0.26677352,0.3057116,0.65125847,0.07961457,-0.8385969,0.29274425,-0.23368809,0.5445784,-0.48105526,1.1530952,-1.3372838,-0.023722652,0.33084345,0.43030202,0.2107494,-0.32129532,-0.44083595,-0.029340781,0.16173938,-0.6753364,0.19170342,0.92657244,-0.35785216,-0.09320876,0.9818781,-0.26714125,0.54847807,0.38725033,-0.8850414,-0.061814576,-0.29726934,-0.2949061,0.8390334,0.48184416,-0.26693273,-0.10920315,0.2581342,-0.4016319,-0.2611287,-0.5066571,-0.29121476,-0.15327841,0.87900543,-0.24321245,-0.3219545,0.75101185,0.11605696,0.1502957,0.06922356,0.6826233,-1.275127,0.08431844,-0.8292242,-1.1532314,-0.15550712,-0.2090415,0.23701388,-0.36662605,-0.2870032,0.3431574,-0.48744923,-0.9737576,-0.43546864,0.84641033,-0.16284736,0.60762805,-0.16066551,1.0548977,0.5827527,-0.057779457,-0.15022385,0.84939986,-0.11744449,0.8245154,0.032317214,0.2155215,0.5843028,-0.08841724,-1.0487584,-0.42961514,-0.02142448,-0.21684095,-0.1929286,-0.1073789,-0.11384681,0.06288608,0.011840127,0.20249476,0.46338588,0.65526813,1.1469529,0.32255235,0.90703636,-0.8521332,-0.53562546,0.9612828,-1.1420103,-0.5952374,0.2078267,-0.044561863,0.8987391,0.19674093,-0.4158244,-0.19113353,-0.06356899,0.10741288,0.25490057,-0.13871503,0.40855744,-0.6051804,0.29632974,0.22359562,0.023646165,-0.53857785,-0.90009105,-0.26743668,0.14559785,-0.42113325,-0.46367422,-0.99827766,0.79907846,0.7600409,0.9365453,0.17607392,-1.1120914,0.13257667,0.9656908,-0.7565441,0.3087957,-1.4836088,0.57897186,0.4472053,0.8368841,0.26091623,0.41737306,0.8896224,0.35030803,-1.1182015,-0.34453577,-0.1508352,0.64072686,-0.26288962,-0.3122385,-0.682828,0.87605774,-0.088233426,-0.25806388,1.1273971,-0.22257549,0.35501143,0.33429244,0.13446873,0.44338304,-0.343553,0.94057876,0.98996127,-0.53575826,-0.32602584,-1.0287356,-0.18779929,-0.81481755,-0.88845885,-0.1570968,0.5396248,-0.18724816,-0.5278027,0.24434766,-0.6361714,0.61685294,-0.6416748,-0.2662793,0.54190385,0.66515213,-0.6273351,-0.6646397,-0.32663,0.3991337,-0.41503417,-0.29529417,-0.08917619,0.73607,-0.49830317,-0.5707529,0.5745306,0.5205215,1.3276826,-0.4946178,-0.048131183,-0.7237189,1.244826,-0.10312574,-0.9021214,-0.2970335,0.42054504,-0.722299,0.06184517,-0.60750276,-0.5222444,0.28115523,0.6183933,0.3744721,0.8871243,0.39336106,-0.12824562,0.023403548,-0.8997764,0.4751022,-0.35576788,-0.7517396,0.17447975,-0.23835394,1.2000889,-0.6755644,0.021463163,-0.27743345,0.9134935,-0.74718964,-1.1890547,0.28285238,-0.78968143,-0.046710417,0.6243861,0.18916291,0.0020582974,0.49782643,-0.8055746,-0.47519526,0.48391888,0.5001079,0.19859484,1.3561609,0.6454854,-0.18895528,0.34032053,0.7215078,-0.25842792,0.57365346,-0.68901587,0.27618116,-0.35757536,0.34370917,-0.16870756,-0.6358246,-0.5537502,-0.31736574,1.4855285,-0.31067377,-1.6158749,0.7257715,0.78304046,0.21097033,-0.9071006,0.29744503,-1.1281407,0.83776855,-0.1980554,-0.06750725,-1.0197951,0.8293605,-0.39523718,-0.37418777,0.8636247,-0.048437517,0.54319227,0.20194021,1.9283941,0.5514089,0.77056456,0.63021487,0.05492396,0.79998004,-1.0151916,-0.63150465,-0.029166391,-0.98520863,0.040078394,-0.6647917,0.14134261,-0.5543067,-0.7576663,0.028828323,-0.6763709,0.15198213,0.49938267,0.14719436,-0.89989245,-0.7957115,0.44698158,-0.32480437,0.47241345,-0.5198826,-0.9914618,0.09456519,-0.8530328,0.7348964,0.7845717,-0.7883405,-0.8185528,-0.5487001,0.6434238,0.42916268,-0.4843273,1.499186,-0.761211,-1.11815,1.2969728,0.45556492,0.110339284,-0.6421938,0.3081739,-0.31122932,-1.1876518,0.5902268,0.13167341,-0.85343885,-0.30192107,-0.5160664,-0.28055137,0.7282526,-0.64022344,0.42828894,0.11191235,-0.030706013,-0.78825563,0.36476272,-0.017183192,-1.0021696,-0.6719768,0.028954603,-0.1624793,0.14332435,0.16965076,1.090093,2.1868818,-0.41435522,0.17911303,0.56353,1.1873281,-1.0842476,-5.10794,-0.1536769,0.19974972,0.8095013,0.6351496,0.080431886,0.3119945,0.69194674,-0.16410013,0.9924641,-0.97127044,-1.111424,0.48171577,1.0462279,-0.33105537,0.27758908,-0.79867893,0.7644373,0.92750293,0.7645421,-0.2774123,0.31183848,1.0377492,1.0460078,-0.33750728,-0.06437029,-0.3426301,0.23990941,0.90706134,-1.2008255,0.17146292,-0.52609473,0.55642384,-0.43567532,-0.30315116,-1.2373003,-0.48381725,-0.63614386,0.5680322,-1.1378528,0.22823977,-0.20205957,-0.32565853,0.39722463,-0.25008032,-0.78660935,-0.74464977,-2.2192771,0.16226222,0.43326503,0.14043002,1.2504387,0.42053288,1.3193613,-0.19394651,0.03162814,-0.76312333,-0.9328326,0.19956356,-0.37394768,-1.4837072,0.68497485,0.45129627,-0.16409342,-1.1673329,0.5054152,0.43405545,-0.5940928,-0.96396214,-0.797889,-1.101455,0.3182865,-0.3765624,0.1360428,0.24746291,0.4298357,-0.07846065,0.5328156,-0.53699005,0.36841434,0.45704165,-0.48673302,0.47840422,-0.71901584,0.41472808,-0.5229918,0.24271083,1.1464885,-0.05350218,0.03731929,-0.26319677,-0.86924857,0.18258929,-0.81950676,-0.64661,-1.0393745,-0.21223699,-0.20748931,-0.19651732,0.36682045,0.41202033,-0.42311177,-0.35146734,-0.32080477,-1.2026392,-0.09169164,0.8168051,-0.27783522,0.17255998,-0.24041031,0.26553553,0.60414493,-0.47041294,0.51647,0.9828014,-0.48800942,1.0725404,0.14634539,-0.84192634,0.3151823,0.2199747,-0.22186331,-0.6669099,0.5326504,0.64439535,-0.71150666,0.81603974,-1.0286041,0.91132754,0.5601619,-0.19185081,-0.09369301,-1.27036,0.62230027,0.3035661,-0.31233245,0.44023207,0.03879196,-0.37542465,0.5465619,-0.7870046,0.8697276,-0.14565176,-0.17998648,0.089368485,0.25677803,-0.7106354,-0.41902846,-0.11529373,0.032222185,-0.5831721,0.6610454,0.30796775,-0.70301956,0.14616928,0.47063538,1.5088891,-0.24256071,-0.35434818,0.76031953,-0.38383186,0.50530684,-0.6885141,0.034816917,0.08713937,0.5043464,0.5478317,0.43509924,-0.056939486,0.34326357,-0.27529877,0.14130911,-0.36524436,-0.5438248,-0.34346247,-0.18382546,0.5348858,0.23290679,-1.270033,-0.53847253,0.9917542,0.4134711,-0.86249447,-0.9505008,0.053156663,0.6157757,1.4851905,0.060488284,-0.6602963,0.3588133,-0.57885677,-0.10785345,-0.9730396,0.4061401,0.57875884,-0.5578954,0.21003214,0.5603489,0.23480427,0.4583386,-0.4784742,0.10616165,-0.6554252,-0.76635087,0.49980026,0.49973404,0.36208618,1.5429478,0.16887772,0.033027545,-0.73582244
C0013404_A,0.26256356,0.48041084,0.29830748,0.7642748,-0.35033914,-0.792978,0.32865348,0.48070842,0.8091472,0.44876093,0.30263147,-0.39763963,-0.5253905,1.7914038,-0.8168177,-0.46573335,-0.25958648,-0.23364377,-0.4085572,-0.13134927,-0.9339403,0.29961008,-0.42945966,0.03112341,0.20797697,-0.9297002,1.48816,0.40290266,-0.20607264,0.62676835,-0.21861234,-0.36659136,0.4968294,-0.18209338,-0.46243444,-0.38237634,0.35479325,1.1023117,0.2581507,0.10869207,-0.15023616,0.36150688,0.5802731,-0.88777184,0.50042367,-0.6436716,-0.14629707,1.0389283,-1.587274,-0.30560088,-0.1954783,1.6099365,0.11608683,-0.62425715,-0.30586943,-0.5629542,0.2508503,-1.0523001,0.024794983,1.0275517,0.06787752,-0.623292,1.1284759,0.46800163,-0.8598062,0.6411816,0.016281165,0.087932386,0.9287062,-0.84858376,-0.42927396,-0.867321,0.46235618,-0.14289428,-1.0054306,0.27533397,1.2288728,-0.324398,0.5372154,1.0485921,-0.48002237,-0.38755915,-0.99370563,0.9940817,-0.5674481,0.05560064,0.2757807,0.48830348,-0.85159934,-0.14774387,0.3314692,-1.0767939,0.07920637,0.41094977,-0.16092244,0.83795434,0.47265625,-0.6274861,0.35661715,-1.101087,-0.34245706,-0.8201779,0.54749566,-0.71705914,-0.0073582754,-0.53836805,-0.84075296,-0.6948396,0.4988604,0.7146731,0.70013124,-0.76269895,-0.785759,0.73481035,-0.44343048,0.30371565,0.8667403,0.62057537,0.4087869,0.051550597,-0.3531856,-0.4501236,-0.00012022676,0.21826157,0.123393476,-1.0570915,-0.42211878,-1.5842187,0.2552455,0.3508174,-2.1496854,0.6749984,-0.3992259,-1.6224294,0.85712564,0.40043974,0.1792257,-0.43220496,-1.5987316,-0.8679432,0.4199469,-0.20816544,-0.61085397,-0.63019043,-0.1369489,-0.12837538,0.34216,0.65493244,-0.49918658,-0.5045395,-0.22845106,-1.0045172,0.60208833,1.2859559,-0.05813689,-0.545699,-0.33472914,-0.300254,-0.6632055,0.034779496,0.338817,1.356996,0.5534175,0.3152101,-0.4182357,-0.035006244,0.3196985,0.20807798,0.09933487,-0.09826274,0.20700306,0.29650158,-1.0283471,1.3166386,-0.0026012808,0.2632097,-0.27351642,0.19155756,0.34664983,-0.3333661,0.43981156,-0.86597294,0.9859948,-0.7124269,-0.55554,0.89140165,-0.62447643,0.6285466,0.31633556,0.075495094,0.25799733,-0.66653985,-0.05994377,-0.19207525,-0.62218094,-0.16568443,0.20345962,1.2207326,-1.509385,-0.67237395,0.56525236,-0.21841823,-0.68959653,0.24695441,-0.05083917,0.12245175,0.42638218,0.17939311,0.07535513,0.57143104,-0.22730327,1.1080623,-0.019886322,0.20612702,0.47275716,-0.105303876,1.0498931,0.47406402,-0.5197165,0.29606992,-0.005666785,-0.5210431,-1.380278,0.67065567,-0.45794356,0.26290315,-0.8490033,0.70860267,-1.0320189,-0.47473896,-0.48151428,0.29250246,-0.06795764,0.038354404,-0.09515954,-0.30309892,-0.4102729,-0.6168227,0.2522868,0.4605376,-0.37523746,-0.4041622,0.6513124,-0.13813893,0.17051007,-0.5175706,-0.8906793,-0.09051675,-0.8260552,-0.0843014,1.0709698,0.29149497,0.018016074,0.41535038,0.7891531,-0.23110479,-0.014683298,0.12920469,-0.85444784,0.22111419,-0.14488745,0.16685043,-0.11356919,1.3337371,-0.48846084,0.13336015,0.92921525,0.234014,-1.3148069,0.28085446,-0.33571458,-1.1137556,-0.015506096,-0.680499,0.065313034,-0.70437574,-0.5934519,-0.1566301,-1.2751344,-0.2048982,-0.23276846,0.07981629,0.40180358,-0.30032605,-0.07498646,0.50080657,-0.021116316,-0.520578,0.052921582,0.44103467,0.1969308,1.1478322,0.25180492,-0.41622412,0.30525547,0.22034848,-0.6602514,-0.3771149,-0.43307832,-0.5928725,-0.054578774,0.43982938,0.3229504,-0.3515229,0.75417703,-0.31143686,-0.19614261,0.5393243,0.75095147,0.4464936,0.6971188,-0.5220385,0.22806168,1.4101638,-1.0139778,-0.74179643,0.2565358,-0.30597162,1.2627147,0.5059537,-0.11605963,-0.75214195,0.16065943,0.61594146,-0.6335101,-0.69603693,-0.15444936,-0.08113748,0.32957324,0.77869165,0.24884993,0.33184308,-1.0642229,0.4018054,-0.39451468,-0.27553916,-0.5094575,-0.3578755,1.3772688,0.8447794,0.71916544,-0.08365037,-1.3088557,0.90027744,1.3142334,-0.7146684,-0.41216624,-0.53166205,0.810044,0.1824584,0.07506864,0.3395487,-0.009931393,0.8414729,0.08981653,-1.6114938,-0.21312858,-0.47446594,0.68073076,0.24177234,0.290966,-0.2374312,0.25783238,-0.1974717,-0.39209348,0.5625939,-0.43769822,0.3807571,0.4711505,-0.24487944,-0.2915115,-1.1797779,0.3952448,0.73860973,-0.59139216,-0.14795305,-1.1939067,0.024028456,-0.3869384,-0.52461636,0.1526103,0.86292607,0.18911044,-0.6537628,-0.25040343,-0.8020594,0.88674384,-0.47017443,-0.36161265,0.4591138,0.87411684,0.25387445,-0.80751777,0.2247813,0.20033401,-0.21964346,-0.5384642,-0.6435454,0.015078053,-0.11052835,-0.783455,1.5775068,0.1318798,1.9118085,-0.08256917,1.222745,-0.4005757,0.06936589,0.54567045,-1.2947346,0.6783403,0.7323853,0.24120496,-0.7233597,0.24575044,-1.1588373,-0.1838533,0.3272372,-0.0850721,0.0933687,0.20371044,0.027360246,1.1604961,-1.0491433,0.54560673,-0.22077934,-0.5217124,-0.21798286,-0.03729614,0.23688148,-0.12263715,0.14299002,-0.15021044,1.1879824,-0.22469507,-0.75168395,-0.011210263,-0.9019839,0.63317937,0.29533884,0.8595385,-0.31611204,0.3130405,-1.0102638,-0.65499765,0.29152805,0.51074606,0.021958869,0.7872266,0.23410659,-0.019200787,0.39569917,0.56401217,-0.3764662,0.43396854,-1.5058417,0.29654968,-0.697343,1.0347115,0.42780524,-0.59902495,-0.49987867,-0.14274433,0.7625068,-0.78220266,-1.5736387,0.92860544,0.7140361,0.85728985,-0.7280387,0.78641504,-0.4585828,0.31374234,-0.81948286,0.14191931,-1.6235964,0.46407107,-0.4118868,-0.023831896,0.6409638,-0.65900105,-0.078786016,0.14408535,1.4561964,-0.19063453,0.9432046,0.326411,0.33602834,0.5209547,-0.96375865,-0.6595394,-0.4686148,-0.40760523,-0.91458964,0.013449021,0.32133907,-0.14589494,-0.46282673,-0.057557553,-0.39088672,0.13874273,0.46377736,0.47943386,-0.83605826,-0.879585,0.046986327,-0.27204907,0.974476,0.04111115,-0.26310942,-0.64379305,0.30961972,0.71917677,1.030907,-0.39929256,-0.6466531,-0.83972484,0.43195817,0.22605753,-0.39647812,1.7574337,0.08366153,0.08557033,1.246299,0.42416093,0.020118281,-0.24185085,-0.46621022,-0.094916135,-0.83695,1.2411048,0.31775504,-0.7185873,-0.920806,-1.0332304,-0.2860163,-0.19869202,-0.9509066,-0.2053563,-0.1600391,-0.2872617,-1.4034741,0.29869717,-0.13394853,-0.69500095,-0.36017555,-0.14141284,-0.49752837,0.26977706,0.31240514,0.7743253,2.157687,-0.2268003,-0.104535125,0.73247635,0.76437366,-0.7196254,-4.710729,-0.45655882,0.16786605,0.97430634,0.3219588,-0.5169585,0.5680439,0.25632176,0.16625147,1.0813645,-0.04516408,-0.72343796,0.9759515,0.7041806,-0.44894856,0.52522993,-0.9411949,1.2441055,0.7479245,0.25015527,-0.34166527,0.97230077,0.5006013,0.44808728,-0.32988465,-0.7653988,-0.60679525,0.36103803,0.99891347,-0.8390253,0.23553123,0.08405009,-0.37692133,0.423904,-0.42178032,-0.38971597,0.0888991,-0.15018117,0.96906257,-1.3119677,0.3553144,-0.6095853,0.074685805,0.16993824,-0.3077255,-0.9304951,-0.0033079968,-2.2954068,0.38336116,0.2936008,-0.083273634,0.11723601,0.7025091,1.1229788,-0.06810657,0.32709754,-0.68207353,-0.8310953,0.2883559,0.99417925,-0.68065196,0.058723927,0.97574514,0.66752625,-0.8558377,0.63452464,1.088003,-0.6462247,-1.5377058,-1.446171,-0.7699738,0.55469424,-0.376132,-0.7765134,0.81230223,0.15256144,0.68771476,0.46764272,-0.7169386,0.084828705,0.98032874,-0.5487766,-0.021363355,-0.790353,-0.24938671,-0.1439504,0.43595818,0.92909235,0.19955195,-0.4725631,-1.4353755,-0.34052056,0.4150424,-0.31035644,0.41790137,-1.1081419,-0.71874005,0.96797234,-0.26419115,0.23926122,0.6961302,-0.30848446,0.33566576,-0.54913247,-1.7695731,-0.97867596,0.09182729,-0.4314449,0.37323058,0.034003038,-0.43616846,0.13774794,-0.61248,-0.31649837,0.38406944,-0.14500603,1.2657526,-0.16772215,-0.6219369,-0.41955167,0.1404922,-0.37955117,-0.63187736,1.392146,0.85869473,-0.43942758,0.7071838,-1.0622731,0.4849891,0.6778183,0.09037884,0.61258435,-0.6218149,0.43825823,0.92032665,0.398653,0.7244958,0.2337496,0.05219035,0.8161488,-0.6461516,0.8722578,-1.0875484,-0.75114465,0.20429035,0.17640704,-0.25865057,-1.4426452,-0.11271787,-0.03690479,0.034386247,0.83874285,0.4580403,-0.16675805,0.09930154,0.10010166,1.694667,-0.10677743,0.104394175,0.47926453,-0.47658402,1.2299318,-0.6445796,-0.3200024,0.33134753,0.4135328,0.50481963,0.2854697,0.14020337,-0.49523708,0.4157121,0.93636215,-0.28009182,-0.27254674,0.14460936,0.3321713,0.5839351,-0.2612916,-0.65408987,-0.8881067,0.5965934,0.3693233,-0.33249745,-1.628095,-0.3815689,0.15894422,1.4690735,-0.3008489,-0.58601373,0.004170254,-0.34625626,-0.16767803,-1.3470988,0.7435606,1.3997388,-0.6715429,0.30045006,-0.16884561,0.76589245,0.5875399,-0.49369496,0.8440849,-0.3699431,-0.13690776,0.4107176,-0.19721654,0.37495965,1.4184191,0.19607753,-0.43667743,-1.2633494
C0242429_P,0.373723,1.0452889,-0.0311031,0.26506382,-0.61779785,-1.0443245,0.16675374,0.016491268,0.4640601,-0.22128749,-0.2819837,0.632548,-2.0403745,0.71445876,-0.8219443,-0.44205606,8.021481e-05,-0.44980896,-0.16304177,-0.66546607,-1.2936598,-0.22911467,-0.2604835,-0.32006407,0.04061123,-0.592817,1.9151042,0.22359401,-0.40671882,-0.10058254,-0.61930704,0.53605735,-0.5643921,0.1144355,-0.7355879,0.55584526,0.364087,1.0157596,1.0317122,0.5510965,-0.35662654,0.84421426,1.1816465,0.025020467,0.38384113,-1.3279287,-0.111011356,1.0288477,-0.76831347,-0.6665698,0.5854343,1.502192,0.4325685,-0.0319691,0.002836699,-0.5373682,-0.8648513,-0.5368385,0.37578464,1.405833,-0.13938677,-0.68932575,1.3832526,0.7979827,-0.6025166,-0.118130304,0.4517074,0.33669594,0.87132525,-1.2700044,-0.12442075,-1.4887192,0.54146177,-0.08266494,0.009851283,0.2624963,1.0550572,-0.1551098,0.26333454,0.24829711,0.025843903,-0.3621341,-0.43661,1.4136997,0.1714541,-0.024393186,0.091915876,0.12721793,-0.30240366,0.46317136,0.73536515,-1.1329697,-0.55667984,0.22273465,0.20109889,0.51180273,0.7794235,-0.052069906,0.66147375,-1.5549548,-0.5489085,0.44680402,1.1392584,-0.63273,1.0622747,-0.3913082,0.2707221,-0.10826114,0.45653334,1.3930951,0.79583615,-0.4993479,-0.2153452,-0.43396747,-0.53411233,-0.15476935,0.595971,0.19822656,-0.15049255,-0.80224997,-0.4415313,-0.15650639,0.3768417,0.34082416,-0.43852827,-0.766779,-1.2359692,-1.3905118,0.3496479,0.55914396,-2.554653,0.58033544,-0.12571377,-0.19118755,0.94770634,0.7460586,-0.116841555,-0.65204954,-0.90218776,-0.48163912,0.15848242,-0.3815059,-0.5585945,-0.53233576,-0.3501638,0.3193597,-0.49583572,0.5129634,-0.3920226,-1.9819838,-0.49589446,-0.2928512,-0.07524814,-0.18314964,-0.45455033,-0.39354578,0.013370909,0.22403227,-0.26490065,-0.2866231,0.5843249,0.59401697,-0.019776866,-0.30106094,-0.20532578,-0.15244931,1.0520474,0.6587365,-0.0007798197,0.031530514,0.22567058,0.81996304,-0.7032692,1.3496536,1.0899466,0.58861446,0.27169445,0.40668997,0.3835028,-0.27595544,0.70041436,-0.11812991,0.60492146,-0.80755603,-1.3469838,0.79665697,-0.5454807,0.7151574,0.6462479,-0.4669487,0.26355046,-0.31675166,-0.2478894,-0.34240448,-0.5124801,0.33339095,-0.5104919,0.34218088,-0.9720105,-0.54962337,0.6020155,-0.081622005,-1.1422439,1.4722877,0.18761986,-0.41065595,0.07751738,0.4082444,0.25169328,-0.5154387,-0.5729594,1.008768,0.6442107,0.38056263,0.43801224,0.859294,1.2650928,0.31176427,-0.13795742,0.3055272,0.3480296,-0.09863253,-0.5139755,0.39809176,-0.73825955,0.38176075,-0.7667532,0.90468526,-1.968123,-0.082952455,0.7097641,0.49690977,0.5239792,-0.23141262,-0.32592914,-0.10272384,-0.24378264,-0.65658545,-0.24162352,0.9928465,-0.56663674,0.04875564,0.7005696,-0.1792007,0.66711986,0.14852048,-1.1524647,0.47169974,-0.28825033,-0.27507254,0.9449009,0.4110787,-0.34159863,0.3393345,0.12762135,-0.22031882,-0.8030264,-0.5695625,-0.4730167,-0.0695882,1.0098689,-0.55744183,-0.27731878,0.7743034,-0.3356026,0.20079811,0.2082259,0.6076211,-1.1745297,-0.08740777,-0.54448575,-1.0081854,-0.312525,-0.022427298,0.53241074,-0.6541142,0.027556527,0.49427968,-0.3479805,-0.92214745,-0.7230495,0.29789367,0.029871244,0.69043785,-0.27310562,0.80189973,1.2063955,-0.1498271,-0.014074924,1.0045186,0.4781866,0.56362295,0.17670673,0.4827314,0.5954415,-0.37844634,-0.9269304,-0.36815542,-0.18242598,-0.1726734,0.03823194,-0.059554826,-0.20787777,-0.045381017,0.0859879,0.42208576,0.16633919,0.6198782,1.2947489,0.5862448,0.9426896,-0.9487673,-0.2845695,1.0915393,-1.504931,-0.5814543,0.13033248,0.076175384,0.73308164,-0.05348064,-0.2339908,0.037204616,-0.042071685,0.14748493,0.38849425,0.1430953,0.16481104,-0.23878583,0.10640809,-0.5572937,0.2061655,-0.7442158,-0.77508414,-0.23906225,0.5368528,-0.09037924,-0.86713576,-0.8055146,0.3865254,0.8823347,0.821455,-0.2792234,-1.3813473,0.25389573,0.50357956,-1.1778913,0.13181491,-1.5470105,0.7837003,0.1712589,0.41303736,0.3059626,0.6690103,0.56631523,0.073429115,-1.157441,-0.16410096,-0.41287813,0.55977553,-0.20800677,-0.33827072,-1.1164265,1.4352903,-0.006915968,-0.11891677,0.95154387,-0.0566585,0.8642421,-0.03398716,-0.064523675,0.48401755,-0.2743256,1.0849621,1.3246049,-0.3738543,-0.5608104,-0.8736509,-0.052492984,-0.8892886,-0.9526065,-0.48744354,0.29966173,-0.12819543,-0.18430854,-0.067871004,0.0823039,0.41834143,-0.33910155,-0.13257669,0.821819,0.3644151,-0.5203777,-0.34162936,-0.6573771,0.44519672,0.026968211,-0.4076441,0.5292943,0.72621053,-0.6273643,-0.77257085,0.23848394,-0.0037755594,1.3413943,-0.3614523,0.06597811,-0.83832073,0.81874067,-0.45804,-1.0023388,-0.06619111,0.4536761,-0.33824486,0.14005135,-0.16622886,-0.7333972,0.39067098,0.4247287,0.32510725,0.8834676,0.04500237,-0.20340955,-0.13857001,-0.8589659,0.27582663,-0.3424345,-0.61957693,0.16704251,0.2738787,0.82743865,-0.7181941,0.12468534,-0.53365487,1.0630021,-0.36877188,-1.124588,0.5259101,-0.6592489,0.27608794,0.7636174,0.03736992,-0.36081567,0.100917414,-0.7469721,-0.5468727,0.038316023,0.32551292,0.2061648,1.0082178,0.74245995,-0.3557997,0.008060411,0.4709387,-0.2169885,0.40433508,-0.8636159,0.32996526,-0.6722441,0.14374441,0.001093219,-0.3478631,-0.1406949,-0.3411497,1.3148617,-0.39524993,-1.3940147,0.81611794,1.0431565,0.0016918741,-1.004918,0.62404555,-0.57312274,0.92955804,-0.10799374,0.16408303,-1.141013,0.7139375,-0.6514135,-0.34312916,1.0488508,-0.2784754,0.40274858,0.14134598,1.8622963,0.13150865,0.6523709,-0.10470737,-0.37747067,0.69186604,-1.2582827,-0.48918507,-0.05519174,-0.88688886,0.11218004,-0.7821457,0.045340016,-0.40118474,-0.98582727,-0.04761496,-0.29248154,0.07164209,0.6396603,0.03795298,-1.0160362,-0.86065346,0.89690953,-0.02973608,0.626462,-0.54562235,-0.5673524,0.28218934,-0.89162016,0.7315399,1.1067917,-0.6111036,-0.49106452,-0.9883599,1.0964999,0.38700393,-0.39109537,1.1495122,-0.59593356,-0.87500787,1.2926682,0.6115559,0.061576128,-0.96973157,0.3310462,-0.86162555,-0.97490036,0.7685419,0.017202139,-1.0382543,-0.31085962,-0.59315854,-0.5222185,0.30098268,-0.83414525,0.39479992,-0.05151634,0.2694159,-0.49309525,0.11343539,-0.89652455,-1.3677719,-0.44968644,-0.34569117,0.56177765,-0.17412342,0.12597968,1.4321542,1.9057829,-0.46955693,0.1199731,0.63039386,0.98317087,-0.89296335,-5.0184546,0.21798895,0.113985576,0.4058219,0.48521793,0.08854357,0.17336424,0.32010418,-0.122492276,0.7492771,-0.9984463,-0.82807827,0.4882276,0.77086604,-0.67262316,0.2790801,-0.28413886,0.5996895,0.6195312,0.41440395,-0.15340987,0.5122894,1.2668337,1.0852915,0.2672823,-0.2808062,-0.19458833,0.10873922,0.39642298,-1.4167038,0.18838347,-0.42592275,0.31984296,-0.44211212,0.116811484,-1.240508,-0.3685883,-1.1200836,0.6179121,-1.2553799,0.19066083,0.07145632,-0.36213475,1.0035114,-0.31496367,-0.8885582,-0.34921363,-2.2256966,0.30414054,0.5961272,0.5918026,0.60966533,0.62154764,0.6014552,-0.04191015,0.15088974,-1.0100863,-0.83479506,0.32860884,-0.31270862,-1.1204201,0.6304343,0.29186743,-0.2629568,-1.0704256,0.4348536,0.23407055,-0.20320882,-0.88812095,-0.56886065,-0.65354615,0.36683872,-0.7613739,-0.26881576,0.21183486,0.4759623,-0.1449841,0.26443186,-0.22813034,0.4317664,0.8924623,-0.33755863,0.19601695,-0.57704514,0.27788514,-0.35609862,-0.0020521358,1.0201799,-0.23498611,0.02143576,-0.33484948,-0.7229563,0.007139031,-1.0280882,-0.4138388,-0.773853,-0.09360798,0.052699618,-0.08688381,-0.09070743,0.8618371,-0.54115653,-0.5231996,-0.12663102,-1.3411565,0.30019218,0.5304495,-0.4012023,-0.09053408,0.28360742,0.26405573,0.008808799,-0.39756453,0.615527,1.1005533,-0.42735472,1.0421244,0.4933725,-1.033966,0.4130177,0.1888492,-0.4759855,-0.83175254,0.82536346,0.8853491,-0.6005056,0.84363765,-0.5808484,0.8871036,0.69020367,0.032602765,-0.143099,-1.2480265,0.6855358,0.21538295,-0.43558073,0.5265617,0.028555576,-0.27884883,0.6290342,-0.58940375,1.212964,-0.7816425,-0.36100498,0.480743,0.27648622,-0.77186775,-0.6946824,-0.51039124,-0.086265214,-1.0108348,0.09201762,0.42318934,-0.5441842,0.15205875,0.24456239,1.4965498,-0.031338364,-0.5909452,0.8078595,-0.21426384,0.55570626,-0.35467607,0.10648079,0.72312367,0.4133443,0.48292896,0.73407483,-0.24621044,0.200104,-0.17007898,0.47106966,-0.37823793,-0.5390724,-0.71611845,-0.29591092,0.7542316,0.08853196,-0.9650321,-0.008927202,0.86639136,0.4693448,-0.97183084,-1.2567421,0.2337096,0.56582814,1.456004,-0.18272342,-0.35838646,-0.10136941,-0.86021435,-0.21102896,-1.1880159,0.25859457,1.0491738,-0.45189193,0.44793126,0.45592386,0.35693336,0.31608462,-0.48546752,0.5711167,-0.54189485,-0.7183124,0.10506728,0.5586435,0.47792372,1.4419507,0.5433813,0.0810108,-1.2272898
